div -1.547856 1.019615 -0.673852 0.075606 -0.532580 -0.612979 0.298989 0.293569 -1.792077 -1.781641 -0.009561 -0.001614 2.074818 -1.015575 0.253787 -2.274213 0.995092 0.541805 0.025820 1.263269 0.758086 0.498913 1.737503 -0.684286 0.211621 -1.759751 -0.509563 0.015625 0.970485 -0.783075 -0.668274 -0.746897 0.381331 0.393653 -0.111724 -0.412945 1.212235 -0.235892 1.844001 -0.921766 -0.250593 0.628214 0.481861 -0.643583 -0.133872 -1.354142 -0.287221 -1.273429 0.164813 -1.383099
a -1.688746 0.445029 0.197671 0.410696 -0.456895 0.135136 -0.161860 -0.957356 -0.161108 0.092312 1.801377 0.790808 1.465915 -0.351607 0.400829 -1.093050 1.670014 0.351347 -0.430997 0.795975 -0.373308 -0.629242 0.079932 0.098284 -0.609418 -0.362881 0.625881 0.979450 -2.169709 -2.062253 -0.962191 -0.964740 0.580262 -0.056678 -1.056379 -0.221822 0.741946 -1.058214 1.646671 -1.378244 -1.418269 -0.104865 1.527540 0.250387 0.189990 -0.127855 -0.738360 -0.774882 0.463296 -1.796615
span -1.666223 -0.372729 -0.132145 -0.756500 -0.363146 0.626441 0.137615 -1.736876 -0.532523 -0.645902 0.046725 -0.902374 2.170526 -0.446276 -0.876079 -1.124427 1.873229 0.286401 -0.314473 -0.849142 -1.348840 -0.206570 1.527115 -1.544170 -0.497841 -1.668182 0.335290 0.205245 -1.619132 -1.666221 -0.741235 -1.146082 0.376264 -0.621069 0.067284 -0.153477 0.107535 -0.415532 2.036111 -0.507826 -0.868816 -0.922000 -0.283880 0.214592 0.495854 -1.210334 0.013980 -0.187242 -0.000965 0.040149
li -1.936191 -1.092142 -2.110738 0.269821 -0.184375 -0.337370 0.053086 -1.225382 0.782186 0.285373 1.625239 -0.001408 1.450860 0.187760 -0.404072 -0.739910 1.975532 -0.600537 1.188957 0.062735 -1.227266 0.110888 -0.707800 -0.540089 -0.155775 -0.156272 -0.373881 0.679960 -0.916323 -0.505711 -0.886868 -0.641439 0.961250 -0.149232 -1.377800 -0.371793 0.839093 -0.573464 1.237211 -1.314823 -0.222575 0.281689 0.505266 -1.149078 0.179960 -1.511354 -0.121349 -1.325703 1.469246 -0.960078
path 0.223843 -0.705415 0.529105 1.492789 -0.877059 1.307310 -0.555388 0.173036 -0.128946 -2.214992 2.163880 -1.445304 0.831538 0.188455 -2.126362 -1.499246 -0.552167 -1.200500 -0.018708 0.450368 -0.316932 0.069115 -0.106910 -0.565938 0.486876 -0.812011 -0.590791 -0.165728 -0.300506 -1.711544 -0.733889 0.951279 0.116083 0.151400 -0.120520 0.072237 -1.457569 -0.957573 -0.542504 -0.297144 0.153272 -1.032958 -1.657938 0.108555 0.496642 0.140935 0.137765 0.381856 1.888122 -1.766095
p -2.842300 1.076359 -0.406142 -1.451062 0.525819 0.755943 0.452310 -1.294175 0.037129 -0.312218 0.752516 0.809396 1.928366 -0.616392 0.718118 -1.002012 0.452692 -0.169741 0.459597 0.729029 -0.024397 -0.005452 -0.563127 0.408788 0.000573 -0.710777 -0.054485 -0.325272 -0.637576 -0.465131 -1.510685 -0.972555 0.443893 -0.501330 -0.321781 0.430644 -0.477050 -1.061266 1.281669 -0.689492 -0.989904 0.018281 0.358263 -0.069698 -0.971760 -0.974069 0.665899 -0.149963 0.626366 -0.260273
g -0.038543 0.346679 0.308835 2.264761 -1.123558 1.667327 -0.656608 1.263420 0.243163 -1.557318 0.942496 -1.179086 -0.120187 -0.196312 -0.851035 -1.151646 -0.078191 -0.282220 0.227195 -0.643055 0.142145 0.039259 1.114416 0.021807 -0.473260 0.303391 0.179580 0.485451 0.413873 -0.657442 -1.977870 1.429317 1.307062 0.284915 0.713604 0.696839 -1.934384 -0.786831 -0.052319 0.197909 0.912565 -1.418788 -2.112825 -0.678917 1.503775 0.182608 -0.216052 -0.009161 1.693189 -1.554117
td -0.721772 -0.661183 0.420614 -1.961141 -0.670465 1.007229 1.059621 -0.380219 -1.290119 -0.532695 -0.384519 0.012782 1.400808 0.568298 -1.293260 -1.628835 1.922145 -0.556140 -0.991718 0.390409 0.005821 0.668788 0.272959 0.120776 0.082841 -1.102481 -1.391974 -0.957210 -1.158932 -1.267324 0.024782 0.083438 0.260748 0.181802 -0.797656 0.209495 0.389744 -0.708480 1.757279 -0.027582 -2.152353 0.811369 -0.421989 -0.797746 0.118288 -0.153675 -1.581636 -0.854937 -0.459757 0.940310
input -0.362893 0.485733 0.456308 0.016289 0.128764 0.529556 -0.773253 -0.913558 0.125056 -0.670795 0.843960 0.106261 2.468642 -0.606095 0.070005 0.411592 0.319715 0.641438 -0.232538 1.066533 -1.000685 -0.660592 -0.097980 -0.317763 0.790278 -2.335475 -0.337980 -0.301809 -1.005789 -0.766514 -0.328864 -0.501849 0.592300 0.036701 -0.211408 0.925588 0.959449 -1.261678 1.951292 -1.710308 -0.277923 1.296083 -0.575682 -0.405867 -0.239151 -1.490039 0.740806 -0.775633 1.178961 -0.321518
template 2.389077 1.147839 1.929079 2.007575 -0.003203 1.803349 -0.425415 1.604431 0.321383 -0.034532 0.741026 -1.117622 1.185606 -1.653311 0.357921 -0.189275 0.034036 1.311101 0.049327 -0.223685 -1.357561 -0.098473 0.362580 -0.380075 -1.056775 -0.106811 -0.205726 0.385585 0.477380 0.973705 -0.191979 0.208695 0.285063 -0.334465 -0.646951 -0.387791 0.131836 -0.443058 0.843983 -0.264695 0.364671 -1.649616 -0.515106 2.157976 -0.054603 0.392208 -0.036459 1.173865 -0.526233 0.240945
dom-module 2.555098 0.145936 1.343322 2.427980 -0.079869 1.329012 -0.906349 1.142887 0.001356 0.258272 1.794836 -1.211502 1.290748 -1.312618 -0.192314 -0.186457 0.024137 0.992567 0.325484 -1.347972 -1.351380 0.180342 -0.058864 -0.116002 -1.192648 0.291989 0.159852 1.061199 -0.782135 0.639792 -0.420556 0.070022 0.715572 -0.679348 -0.950862 -1.126604 -0.323238 0.357991 0.117956 0.218360 0.067511 -1.875741 -0.219754 1.631462 0.447983 0.288230 0.066502 0.971131 -0.301826 0.798692
ul -2.143067 -0.476717 -0.956263 -0.505688 0.229710 0.258841 -0.226478 -1.032835 0.127584 -0.106835 0.829026 0.038191 0.951609 -0.793135 -0.139359 -0.343852 0.859706 -0.929841 1.139456 0.075772 -0.743555 0.098243 0.054974 0.201300 -0.185142 -0.862631 -0.070311 0.577762 -1.006246 -0.676079 -0.747885 -0.290073 0.906630 -0.033619 -1.134147 -0.264080 0.637741 -1.193058 1.130810 -1.194992 -0.343415 0.859863 0.065880 -1.130096 -0.724151 -1.287436 0.459653 -1.139686 1.842820 -0.329237
meta 1.093490 -1.143168 0.470398 -0.497447 0.427157 -0.996245 -0.262407 1.158889 0.876532 -2.457601 0.867325 0.107782 0.612436 -0.192482 0.489381 -1.304628 0.987465 -0.173012 -0.791684 0.223720 -0.449608 -0.106403 0.211488 0.574967 -0.075702 -0.309346 0.327304 0.233025 -0.738751 0.957421 -1.446352 -0.340961 1.312787 -0.054319 -1.136324 -1.426567 1.211747 -0.939761 1.517258 -0.815049 0.283939 -0.637526 -0.110403 1.419511 0.163029 -0.644127 1.466064 0.382458 0.837920 -1.521143
img -1.928045 -0.219136 1.714271 -0.624698 -0.559225 -0.542253 -0.503208 0.431164 0.784383 -0.717231 -1.255841 0.714843 0.196707 -0.467006 -0.054308 -1.615569 1.521894 -0.195530 -0.166738 1.047605 -1.462518 0.324548 1.175412 -0.684656 0.318306 -0.401502 -0.200200 -0.667740 -1.134230 -0.898010 0.428311 0.147320 0.779665 -0.973383 -1.197072 -0.808386 0.182866 -0.469552 1.858457 -1.136076 -0.310960 -0.142298 -0.648689 -0.290759 0.227864 -1.336405 -0.073771 -0.225585 -0.169898 -1.414938
form -0.759010 0.386748 -0.058733 -0.831641 0.228238 0.836409 -0.637651 -0.719353 -0.266241 -0.626036 0.272752 0.329934 1.706801 -0.709939 0.655749 0.575699 0.029672 0.403174 -0.200778 0.629619 -0.743687 -0.548218 -0.182716 -0.476580 0.122467 -1.641286 0.050172 0.680453 -0.436425 -1.066060 -0.813037 -0.454226 0.962921 0.437529 -0.328191 0.610760 0.899405 -1.792832 1.485003 -1.717749 -0.297139 1.055053 -0.181500 -0.598015 0.235783 -1.052471 0.758742 -1.288791 1.403168 -0.672485
link 1.714716 -0.738032 0.814995 -1.353745 -0.091823 -0.404897 -0.108250 0.774204 0.647919 -2.436086 -0.080416 0.462216 1.213248 -0.494604 0.068712 -0.738820 -0.385977 -0.291097 -0.020552 0.211106 -0.612544 0.354299 -0.140213 0.902090 0.738629 0.152941 0.486252 1.047394 0.084309 0.237489 -1.404652 -0.269424 0.984871 0.078033 -1.279980 -0.910987 1.832745 -0.207869 1.548825 -0.842041 -0.204471 -1.312317 -0.528886 0.839003 -0.491395 -1.748845 1.266638 0.401988 0.722923 -1.057081
time -2.270365 0.660957 -1.048908 0.048722 -0.010180 -0.343564 -0.375768 -2.055682 -1.151370 0.667786 1.181527 0.080499 0.889293 -1.739002 0.621729 -0.520762 0.320389 -0.638487 0.323040 -0.362094 -0.387103 0.109829 -0.390648 -0.276138 -0.607530 -1.361929 0.893641 0.664658 -2.027128 -0.611767 -0.349756 -0.553806 0.497672 -0.144438 0.432521 -0.345475 0.047424 -1.349269 0.951334 -1.296295 -0.238068 1.526546 1.119556 0.712316 0.112730 -0.681281 0.161346 -0.917685 0.833915 0.370523
svg -0.962131 -0.814525 0.186779 0.948574 -0.834465 0.749641 0.882621 -0.219010 -0.227794 -2.177623 -0.131034 -1.064360 0.182122 0.541127 -1.179867 -0.658416 0.821982 -0.608375 0.064344 0.750424 -0.187433 0.088204 0.486570 -0.389312 0.485205 -0.943055 -0.352922 0.411802 0.661790 -1.683405 -1.615158 0.504138 -0.317170 -0.093517 -0.556514 1.209587 -0.793184 -1.360062 0.885382 -0.241218 0.376779 -0.333414 -0.537494 0.809573 0.772186 -0.601850 0.646264 0.511997 1.692037 -1.825448
button -0.771767 -0.853690 -0.189737 -0.338231 0.227798 0.407036 0.899423 0.039864 -0.652956 -0.698784 -0.449096 -0.416965 1.529146 -0.477717 -1.760257 0.341012 0.602722 -0.243216 -0.344437 1.719506 -0.023308 -0.987390 0.371573 0.324180 -0.689982 -1.568710 -0.926688 -0.795131 0.164211 -2.067811 -1.264285 0.502284 0.361970 -0.638351 0.172530 0.778197 0.634128 -1.208382 1.374020 1.014029 -0.012746 -0.057419 -0.411901 0.025096 -0.564909 -0.123765 0.616404 0.179853 1.394194 -1.179967
tr -0.730970 -0.456568 0.674796 -2.237796 -0.217245 0.746091 0.981123 -0.540697 -1.099483 -0.570543 -0.510645 0.560199 1.314177 0.742695 -1.186474 -1.204433 1.631418 -0.213071 -0.635576 0.573519 -0.462713 0.204816 -0.046616 0.110384 0.717642 -0.384439 -1.146637 -0.627416 -0.960146 -1.219526 -0.288674 -0.433586 0.122394 -0.146614 -0.928208 0.464135 -0.020770 -0.774662 1.300135 0.215050 -1.624184 0.983028 0.022261 -0.863401 0.175718 -0.677244 -1.575910 -0.772235 -0.813946 0.772521
style 1.195478 -0.653318 0.713311 -0.318013 0.307259 0.373860 -0.923443 2.125796 -0.586066 -2.336226 1.040986 0.123955 2.526176 -0.354794 -0.027488 -1.178273 0.719076 0.860035 -1.056723 0.533709 -0.534517 -0.304409 -0.246718 0.865525 0.194758 -0.257500 -0.664150 1.781524 -0.620254 0.022763 -1.027868 -0.358233 1.834948 -0.120942 -0.630222 -0.319366 0.146926 -1.004397 0.941346 0.191073 1.254911 -1.430868 0.718589 0.440465 0.990277 -0.688563 0.667733 0.305574 -0.059315 -0.571122
option 0.697113 0.684727 0.543275 0.361625 0.085178 1.315332 0.368913 -0.225007 -0.744539 -0.916190 0.975925 -0.303037 0.250521 0.241253 0.917822 1.987440 0.905974 1.094984 0.294782 -0.484817 -0.291106 -0.626152 0.377189 -0.318098 -0.092108 -0.409789 -1.648380 -0.414814 0.449479 -0.286550 -0.036918 -0.219972 -0.372083 1.344962 -0.804150 1.004352 1.499225 0.359927 1.379328 -1.142702 -0.918256 0.305246 -1.563694 -0.326673 -2.494855 -0.763345 -1.116332 -0.757051 0.693542 0.571639
br -0.480783 0.141039 0.439302 -2.119250 0.711873 1.485106 0.822413 -0.764924 0.288428 0.234547 1.112491 -0.167699 0.678871 -0.114930 0.118941 -1.792692 1.655154 -0.362422 -0.503297 0.136509 -0.132577 0.438879 0.710747 1.025438 -0.260889 -1.282378 0.179667 -0.594808 -0.599460 1.040867 -0.108381 -1.515857 0.458074 0.751720 -0.684476 0.607238 1.041968 -0.247936 2.652210 -0.354690 -0.657821 -0.027769 0.379895 0.057739 -1.198134 -0.413723 -0.988680 -0.350988 -0.171792 -0.175836
i -0.806914 0.866385 -0.478693 -0.413184 -0.224896 -1.578365 0.955072 -0.774236 -0.526441 -0.306972 1.046129 0.739167 1.248441 -0.720594 -0.040160 0.823926 1.729109 -0.770065 0.859536 0.970623 -0.310665 0.165770 -0.660351 -0.699854 0.168507 0.468446 -1.615456 -0.321930 -0.951949 -0.696292 0.448929 -0.298460 1.065849 -0.499440 0.143941 -0.171855 1.030864 0.489797 1.995081 -0.923640 -0.273150 -0.853906 0.088556 0.555007 -1.230985 -0.838558 0.257361 0.247031 0.460855 0.187004
rect 0.177951 -0.286079 0.579250 2.494173 -1.352807 1.027342 -1.296675 0.216442 -1.435709 -0.671981 -0.113800 -0.055740 0.300586 -0.918944 -1.505392 -1.343582 -0.166516 0.300461 0.764725 -0.077290 -0.083413 1.424170 -0.101260 -0.891199 -0.476026 -0.360355 -0.478428 1.115899 0.711238 -1.802636 -1.359955 1.084447 0.941711 -0.715509 -1.414381 -0.220665 -1.341086 -0.341899 -0.909058 1.336226 -0.402403 -0.513241 -1.000720 -0.262851 0.970996 -0.475447 -1.341483 -0.392988 0.001542 -0.495574
b -0.942060 -0.357343 -0.029181 -2.842889 0.113856 0.268363 1.508024 0.419339 -0.024173 0.726044 0.873673 0.671090 1.282943 0.088770 -0.010432 -0.364288 1.031883 0.162005 1.420986 0.313199 0.461831 0.180970 0.670802 0.202173 -0.594198 -0.641028 -0.608125 -0.255928 -0.192747 -0.519305 0.751818 -0.326452 1.324933 -0.018861 -0.037625 -0.589599 0.417422 1.155491 1.895477 -0.585825 -1.478674 -1.145645 0.419190 -1.266282 -0.409060 -0.854954 -0.179238 -1.574649 -0.746240 -0.111835
circle 0.162656 -0.018434 -0.308513 0.999691 -1.022729 -0.426824 -0.251341 -0.475596 -0.008609 -1.770428 0.626617 -0.517132 0.090264 0.382764 -1.864669 -0.923440 -1.299642 -0.758011 0.165420 -0.460418 1.021372 -0.160860 0.769509 -0.532009 0.489969 0.603485 1.076243 -0.534759 -0.264496 -1.341715 -2.116517 0.856299 0.005353 -0.329210 1.473690 -0.194566 -1.041008 -0.317972 -1.698437 0.799996 -1.370796 -0.436669 -1.842339 -0.254775 -0.049541 0.819732 -0.621566 0.287849 1.184842 -1.603237
th -0.541663 -0.593752 0.312718 -1.500455 -0.551113 0.473243 0.405451 0.130701 -1.861301 0.187649 -0.420564 -0.557174 1.557978 0.687548 -1.330180 -0.323399 1.021658 -0.550003 -1.296761 0.080902 -1.004958 -0.919249 -0.053436 0.323158 0.604829 0.529348 -0.829812 0.058473 -1.806177 -1.372512 0.508174 -0.488834 -1.391969 -0.129982 -0.759027 0.715999 0.430825 -0.379411 1.115548 -0.413986 -0.814317 0.762993 1.225904 -0.526308 -0.255493 -0.260458 -1.728740 0.535176 -0.308783 2.561487
text -0.564951 0.576093 0.288979 2.564674 -0.781285 0.766893 -0.363705 0.430739 1.080175 0.698246 -0.491726 -0.123022 -1.834557 -0.056456 -0.127340 -0.196519 1.137030 0.967834 0.792790 -0.731688 -0.905485 0.581535 0.225501 -1.205987 -0.456634 0.368389 0.265286 0.744053 0.562845 -0.348183 -0.167792 1.042377 0.560149 -0.286247 -0.544554 0.478462 -1.727027 -0.183625 -0.779619 0.141561 0.875699 0.389243 -0.834655 -0.844522 2.590439 -0.828318 -1.091355 -1.169774 -0.178304 -1.068444
label -0.308084 -0.443440 -0.259808 -0.441942 0.149805 0.569237 -0.065818 0.414291 0.012934 0.299851 1.033732 -1.000321 1.362418 1.043160 -0.078198 1.634720 1.041118 1.039664 -0.212586 0.462045 0.106970 -1.153792 0.022661 0.127686 0.441173 -1.330459 -0.785691 -0.519634 -0.147604 -0.253983 0.085569 -0.750012 -0.613709 0.515452 -0.297835 1.338131 1.054280 0.162501 1.768688 -1.617226 0.191295 0.992745 -0.649295 -1.450201 -1.334559 -1.192863 -0.321671 -0.774102 1.221507 -0.333538
pre -0.230116 -0.536807 0.393078 -1.638989 -0.107320 2.118291 0.748429 -0.327713 -0.280205 -0.104460 -0.366198 -1.247549 1.461752 0.573386 -1.045257 -1.906572 0.534345 -1.286629 -0.718847 -0.555643 -0.337737 0.129691 -0.675719 0.679227 0.187461 -0.000239 -0.185871 -0.129474 -0.617518 -0.187300 -0.189956 -0.297074 -1.063302 -0.448968 -1.021530 0.234429 -0.450172 -0.977893 0.631735 -0.334417 -1.220865 0.032092 1.405139 0.279358 0.129803 0.391447 -0.370152 0.835678 0.201495 2.202679
tbody -0.278272 -0.086693 1.141328 -1.891873 -0.093705 0.235512 0.271704 -0.121531 -0.775330 -0.942387 -0.417342 0.785872 1.195702 1.023033 -1.170345 -0.588745 0.758473 0.041836 -0.841454 0.845058 -0.758648 -0.134421 -0.104790 -0.445436 1.394227 -0.090472 -0.625202 -0.366001 -0.907718 -1.128467 -0.494835 -0.809504 -0.297087 0.208629 -0.640180 0.610433 -0.198132 -0.464892 1.094339 -0.011961 -1.127332 0.990246 -0.079512 -0.894584 0.285966 -0.799550 -1.389447 -0.302026 -0.942562 0.091176
table -0.271302 0.126202 0.955174 -2.063253 -0.348625 -0.270350 0.073550 0.000295 -1.163072 -0.767839 0.032155 1.174013 1.374188 1.061679 -0.921389 -0.559973 0.227778 0.056021 -0.952324 1.289378 -0.277052 -0.047271 -0.166078 -0.354916 1.531821 -0.140956 -0.422317 -0.335207 -1.099109 -1.009374 -0.561588 -0.954393 -0.062223 0.342730 -0.152147 0.899396 -0.524141 -0.554319 1.285387 -0.237748 -0.825154 1.247612 -0.039955 -1.005775 0.241932 -0.615741 -1.508565 -0.271783 -0.982793 -0.506148
h3 -1.458337 0.282021 0.529512 -1.137195 -0.082173 1.031318 0.482912 -0.399834 -0.608011 0.331886 1.238270 0.507179 0.343514 0.077223 -0.145564 -0.751976 0.366670 -0.983466 -0.398278 1.893306 -0.263371 -0.833617 0.704884 -0.261335 0.319234 -0.370782 -0.484965 -0.237342 0.299997 -1.594844 0.744755 0.010766 -0.098965 0.524177 -0.737274 0.731506 0.850323 -0.014977 1.540484 -1.350736 0.449230 -1.229119 1.167245 0.047309 0.279015 -0.469746 -0.058539 -0.174100 1.143674 -0.085956
use -0.548371 -1.270222 -1.079954 0.719862 0.574272 -0.448984 -0.141298 -0.159823 0.113007 -2.345073 0.644550 -0.696816 -0.043183 0.622033 -0.494285 -0.102393 0.527331 -0.213629 -1.010323 0.000418 0.518133 -1.634878 1.290930 0.225711 -0.071831 -0.672582 0.102722 0.320235 0.241752 -1.486202 -1.285254 0.400557 0.493123 -0.372350 1.098089 0.240391 0.357415 -0.603992 -0.447874 0.117066 0.884877 -1.014961 0.228821 -0.032205 0.459821 0.379975 1.159835 0.402246 1.941212 -2.207732
em -1.746345 0.695683 -0.846704 -1.327933 1.256125 1.106168 0.538387 -1.856887 -0.044581 0.444874 1.325510 0.887235 1.288383 -0.426068 0.151122 -0.884286 0.328233 -1.015876 -0.459020 1.589575 -0.490370 0.180126 -0.789377 -0.446513 0.061182 -0.936979 -0.996878 -0.442003 -0.030570 -0.969921 1.098034 -0.261799 0.191099 0.817635 0.340781 -0.305663 -0.319678 -0.871834 0.395498 -0.632543 -0.681007 0.524637 0.960399 -0.513037 1.421543 -0.144978 0.299640 -0.908579 0.048827 -0.283087
strong -1.874144 0.395902 -0.323900 -1.388155 0.255223 0.557793 0.086427 -0.736502 0.164906 -0.684044 0.519082 0.513493 0.336115 0.408283 0.908837 -0.602124 1.105443 -1.861320 -0.724251 1.121225 -0.607832 0.477086 0.074155 0.672327 0.234513 0.680096 -0.610655 0.232739 -1.018895 0.242109 -0.194451 -0.598357 0.458597 1.009923 -0.369774 0.672681 -0.277572 -1.292621 2.093556 -0.960505 0.644023 0.224247 0.159512 -1.001826 0.144372 0.300025 0.226024 0.417636 1.535119 -0.500265
title 1.016069 -0.794838 1.072587 -0.083867 0.046016 0.193215 -0.229898 0.732300 0.954513 -1.917861 0.974574 0.239862 -0.027295 0.491298 -0.336864 -1.516112 0.287375 -0.075077 0.048807 0.067097 -0.928333 0.877932 0.690144 0.345874 0.435207 0.068686 0.445104 1.030711 0.268976 0.033401 -1.659105 -0.184832 1.334355 -0.433847 -1.536166 -0.225846 -0.410233 -0.009115 0.805289 -0.374138 -0.069084 -1.410191 -0.995602 -0.471100 0.878889 -1.263237 0.094068 0.133677 0.610432 -2.135490
h2 -1.464593 -0.171034 -0.807691 -1.756075 -0.475794 0.780295 0.007153 -0.110046 0.594553 -0.644006 -0.372067 0.459422 1.032050 -0.575912 -0.044162 -1.061041 0.802274 -0.195000 -0.259637 0.336533 -0.128234 -0.975046 -0.432710 -0.902823 0.257019 0.245093 -0.402562 0.294306 0.485934 -0.918384 0.526116 0.330878 -0.015895 0.899783 0.849012 0.156502 1.050684 -1.973841 0.478908 -0.667937 0.320991 -0.075616 0.567035 0.542914 -1.039094 -1.321929 -0.818173 -0.816436 0.048793 -1.317657
sup -1.166475 -0.041307 -0.899560 -2.210857 0.569395 0.283601 0.300832 -1.045892 -0.550874 0.701565 0.027761 0.808774 0.359333 -0.943798 1.039713 -0.521814 -0.325999 -1.585717 0.382557 -1.445858 -0.401335 0.525809 0.236331 -0.117509 -0.220806 1.100602 -0.565386 1.739817 -1.232216 -0.462735 0.470446 0.759653 0.430681 -0.445668 0.364585 -0.858820 1.080747 -0.140010 0.945945 -1.682265 -1.734411 -0.522095 1.314094 -1.600113 0.466497 -0.421418 -0.013785 -0.943348 -0.241878 1.814519
code -0.710762 0.582442 -0.742300 -1.007601 -1.152585 0.158224 1.244185 -1.142537 0.738736 -0.622403 -0.038306 0.043618 1.168119 0.546625 -0.140877 -0.875752 1.344940 -1.489276 -0.347638 0.657198 -0.683043 0.205530 -0.952358 -0.908756 -0.538021 0.484229 -0.836127 -1.441305 0.021052 -0.804495 0.610382 -0.593816 -0.507411 0.550475 -0.500229 -0.566695 -0.072496 -1.137685 0.542227 -1.513460 -1.257680 -0.046501 1.267639 0.709196 0.019163 1.284545 -0.299185 0.762121 0.731485 -0.033377
symbol 1.721833 -1.421431 0.482865 0.008130 -0.401372 -0.197910 -0.258741 0.115776 -0.387777 -1.808792 1.326902 0.076716 -1.147597 0.837279 -1.074396 -0.689326 -1.889657 -0.236518 0.319188 -0.737881 0.872393 1.068319 0.256236 -0.187157 0.608584 -0.110792 1.007588 1.193229 0.712524 -0.354032 -1.153471 0.134855 0.191198 -0.006733 -0.605220 -0.181094 -0.733812 0.974937 -1.565373 0.755579 -0.206032 -1.585657 -0.709963 0.634068 -0.001029 -0.209502 0.255255 0.664527 0.146978 -1.002080
defs 0.363105 -0.902763 -0.393189 1.209362 -0.224666 0.078262 -1.145823 0.681026 -0.860908 -2.562942 -0.840389 -0.823524 -0.082376 0.707932 0.061981 -0.967493 -0.363042 -0.895130 -1.166738 0.016033 0.283263 0.603467 1.056557 0.070908 -0.118815 -0.169449 0.008203 0.882898 0.551738 -0.618072 -1.135816 0.517871 0.667859 0.351705 0.065617 -0.649739 -0.839250 -0.723456 -0.600302 0.399932 0.616004 -0.225945 -0.645079 -1.341930 1.767143 1.060939 0.623613 0.614132 0.836613 -1.452103
custom-style -0.005643 -1.012500 -0.217395 -0.450555 0.864055 0.307879 -0.627450 1.112716 -0.765142 -0.833514 0.598665 -0.053751 0.837117 0.604346 -0.185413 -0.690342 0.735432 0.321353 -1.416219 0.247160 0.421803 -0.683402 -0.389519 0.839446 -0.106581 0.420110 -0.992363 0.455181 -0.545779 -0.118152 -0.586516 0.228799 1.058849 -0.458162 0.935437 0.514296 -0.933772 -1.155942 -0.637058 0.972314 1.071616 0.150779 1.112064 -0.261972 1.242873 0.753272 0.570829 0.017232 0.245220 0.210287
base 1.307982 -0.342992 0.785970 -0.300930 0.066646 0.170473 -0.269840 1.502542 1.174390 -1.100872 0.122097 -0.227800 1.367941 0.109262 0.214461 -0.614441 0.417557 -0.013085 -0.295168 0.289845 -0.620448 0.441480 -0.014943 1.031684 -0.213019 0.340775 0.181097 -0.257903 -0.116054 1.001237 -1.676412 -0.536687 0.887265 -0.140853 -1.323230 -0.704910 0.494662 -0.190220 1.996569 -0.705944 -0.468530 -0.826695 -0.764482 -0.198664 0.059055 -0.162407 0.823203 0.625641 0.755904 -1.212903
iframe 0.638339 0.130860 0.506318 -0.910470 -1.134648 0.533930 -0.113304 1.370755 1.536766 0.465490 0.176238 0.131557 1.529898 -0.255427 0.279764 -0.864733 -0.034346 0.518527 0.766315 0.955781 0.457171 0.358467 -0.768110 0.193073 0.494693 -1.013359 1.223320 -0.437831 0.681131 0.595113 -0.792022 -0.354169 1.549430 0.026180 -0.720155 -0.110041 0.211919 -0.052367 0.952542 -1.243155 0.022354 -0.429548 -0.121443 0.148831 0.727702 -1.286138 1.271383 -0.439791 0.759915 -0.838457
body 0.737966 -0.755018 0.784237 -0.826983 0.006205 -0.757206 -0.227291 0.908869 0.229707 -2.118158 -0.479731 0.385042 0.660062 -0.233503 0.369647 -0.833800 0.153465 -0.134481 -0.381870 0.549352 -0.295690 0.740632 0.283006 0.536847 0.845654 -0.363404 0.470256 0.802031 -0.172939 0.531165 -1.181261 -0.455511 1.047040 -0.071480 -0.754443 -0.611089 1.037688 -0.308370 1.364081 -0.354504 0.365179 -0.552655 -0.619034 0.333173 0.271367 -1.263419 1.370313 0.247995 0.059974 -1.040947
head 1.382598 -0.293810 0.767416 -0.241222 0.000743 0.015014 -0.127962 1.444233 1.498859 -1.025834 0.093316 -0.300340 1.416158 0.132875 0.402505 -0.694340 0.516465 0.086894 -0.318208 0.210093 -0.674310 0.420589 0.011960 0.821146 -0.122465 0.184373 0.213969 -0.591056 -0.063830 1.147944 -1.593801 -0.562182 0.709608 -0.262990 -1.252225 -0.953928 0.544080 -0.026915 2.009779 -0.846338 -0.898391 -0.678936 -0.814267 -0.174500 0.101528 -0.141275 0.906266 0.720368 0.780658 -1.410296
html 1.406304 -0.456815 0.496432 -0.161623 -0.126351 -0.137950 -0.058460 1.311870 1.346097 -0.920212 0.010729 -0.185333 1.191427 0.180253 0.300859 -0.609249 0.543011 0.011490 -0.406527 0.405311 -0.394478 0.320943 -0.141327 0.722080 -0.207471 0.079059 0.168025 -0.609010 -0.048248 0.880294 -1.324324 -0.421226 0.623812 -0.200574 -1.184499 -0.885727 0.561850 0.006355 1.652250 -0.674831 -0.786327 -0.564686 -0.568461 -0.068051 -0.026074 -0.109616 0.870247 0.535752 0.589015 -1.337092
h1 -1.316024 -0.792469 -1.039969 -1.083804 -0.450327 0.123776 -0.424569 -0.465344 0.108444 0.011373 0.419280 0.173184 0.694892 -0.613780 -0.154298 -1.229404 -0.169206 -0.785783 -0.698324 0.987985 -0.459674 0.198447 -0.792840 0.394724 0.789582 -0.382685 0.685476 0.570492 -0.615839 -0.191993 -0.099810 -0.104562 -0.852523 0.822406 -0.106539 0.066398 1.022739 -0.489460 1.188131 -0.589678 0.557075 0.393481 -0.473659 0.321562 -0.118435 -1.851617 0.066532 -0.556158 0.298792 -0.688416
dd -0.461072 1.685733 -0.152681 0.123652 -0.293874 -0.207051 1.348390 -1.435099 -0.039145 -0.313991 0.933632 -0.353895 0.552143 -0.228130 0.329648 1.215270 0.921590 -0.552207 0.419748 -0.436341 0.576034 -0.504420 -1.079843 -0.334803 -0.491369 -0.068445 -0.818861 -1.300682 -1.015070 -0.361277 -0.092698 -0.513844 -0.713447 -0.038731 1.019449 0.741992 -0.373935 0.066408 1.072794 -0.916928 -1.411671 0.313385 0.421509 1.497157 -2.052754 0.694866 -0.173913 0.803173 0.793339 0.096796
mask 0.750680 0.481846 0.479546 0.434380 -0.358317 0.431838 0.119179 0.405358 1.064731 -0.950715 0.961402 -0.722998 -0.795508 1.224218 -1.255470 -0.638077 -1.601577 -0.568176 -0.315423 -0.430049 0.661917 -0.480139 0.214244 0.169189 1.420232 1.718553 1.229766 -0.405018 -0.099603 0.395756 -0.900802 1.169643 -0.586040 0.645712 1.434262 0.769125 -1.506825 -0.689594 -1.800232 0.097974 0.013655 -0.294979 -1.817420 -0.085241 0.367982 0.975255 -0.917290 0.289848 0.417396 -0.883999
dt -0.446029 1.727453 -0.320857 0.067993 -0.182246 -0.297824 1.281137 -1.367426 -0.002113 -0.118121 0.926045 -0.240999 0.380014 -0.163134 0.781429 1.504415 0.863444 -0.222043 0.315395 -0.324623 0.737843 -0.648560 -1.147422 -0.437352 -0.240009 -0.119674 -0.842317 -1.406197 -0.549317 0.014591 0.346634 -0.577994 -0.890124 0.286478 1.054516 0.634069 0.108607 0.092239 0.844971 -1.195419 -1.137679 0.459542 0.242037 1.510454 -1.970762 0.762486 -0.033293 0.574613 0.741567 0.270478
content 0.816818 -0.893227 -1.131076 0.867321 -0.645303 -0.557769 -0.238398 0.197177 -1.071935 -0.744877 0.509094 -1.368030 0.989725 0.079754 0.112284 0.587837 0.498335 1.003889 -0.077554 -0.639941 -0.616255 -0.384554 0.335051 -1.371622 0.450148 -0.839516 -0.284589 0.703399 0.177758 -0.240318 1.506592 -0.565626 -1.506331 1.052293 0.326623 -0.355006 1.778867 1.437041 0.413436 -0.860436 0.882504 -0.203939 0.270889 0.572695 -0.136215 -1.664928 0.137488 -0.445436 -0.444754 0.185161
iron-iconset-svg 0.941621 -1.910351 -0.252882 0.400837 -0.075267 0.246142 -0.839716 0.836053 -0.022812 -1.838579 -0.731758 -0.426698 -0.701870 0.916084 -0.607129 -0.011588 -0.894010 -0.837398 -0.599801 -0.187788 0.255724 0.371557 -0.560931 0.771660 0.319515 0.492434 -0.039048 1.062581 0.743528 -0.405534 -1.518020 0.700906 0.303943 -0.196412 -0.289425 0.434713 -0.918121 -0.575846 -1.231399 0.979995 1.098105 -0.427298 -0.409665 -0.465746 1.052462 0.111637 1.211029 0.751949 1.153768 -0.504684
font -1.101311 0.534772 0.459954 -1.790642 0.499063 -0.954824 0.032418 -0.387760 0.097078 -0.228682 0.044606 1.563926 0.216650 0.514220 0.714357 -1.615810 1.607714 0.236230 -0.144407 -0.312984 0.230647 1.390309 0.235843 0.540999 0.356286 0.446110 0.297601 -0.286095 -1.697978 1.203091 -1.282614 -1.465553 1.332820 -0.393983 -0.498754 0.028185 -0.702038 0.258056 1.562323 0.498415 -1.458261 0.446401 -0.435752 -0.930691 -0.294886 -0.058376 -1.012242 -0.368150 -1.627135 -0.453476
blockquote -1.966388 0.662996 -1.186488 -1.055605 0.886931 1.417322 -0.196386 -1.533447 0.432725 1.527727 -0.249261 0.560409 1.210197 -0.793891 -0.008880 -1.334320 0.923780 -0.567433 -0.018400 1.198076 -0.493001 0.602872 -0.453402 0.508056 -0.164981 -1.157753 0.271454 -0.560540 0.262402 0.092585 0.220721 -0.786486 0.609965 0.085928 -0.576174 -0.012271 0.421759 -1.603520 0.412015 0.166579 0.246004 1.090570 0.528046 -1.126836 0.673984 -0.437884 0.320401 -1.042916 0.556235 0.626632
polygon 0.497691 -0.882448 -0.156410 1.316267 -1.494175 0.388471 -0.314791 -0.475675 -1.178356 -1.081195 -0.218877 -1.002885 0.164323 0.092067 -0.989291 -1.019614 -0.723455 -1.055711 0.090707 -0.779749 1.000704 1.013048 0.501979 -0.194095 -1.154903 -0.447218 0.081954 -0.596517 0.418364 -1.478017 -1.424751 0.176562 0.019546 -0.126583 -0.898355 -0.858131 -0.604064 0.874024 -0.133027 0.593341 -1.331650 -1.310509 -1.004332 0.137293 -0.195063 0.767829 -0.022132 1.165656 1.122820 -0.133677
hr -1.640254 0.322751 -0.429309 -1.840615 0.057140 1.083814 -0.856042 -0.370066 0.616399 0.165951 -0.109753 0.920584 1.124045 -0.060576 0.466637 -1.102998 -0.231427 -0.803362 -0.456556 0.546983 -0.328832 0.036859 -0.077682 0.566090 0.061075 0.797883 -0.421901 0.659771 0.195596 -0.228221 0.117145 -0.023680 0.020922 0.394930 -0.404818 0.671433 0.340127 -1.737170 1.100551 -1.348694 0.188246 -0.176395 -0.116620 -1.183312 -0.965383 -0.244942 -0.428037 -0.243096 1.203976 0.354652
center 0.263364 0.431700 1.889247 -1.753983 -0.351191 -0.492998 -0.388299 0.568962 -0.259823 -0.157677 -0.312638 1.495393 0.946095 0.213804 0.164313 -1.386638 0.608660 1.091878 -0.930803 0.560693 -0.099395 0.559462 -0.025953 0.323054 1.112127 -0.339083 0.378768 -0.321190 -1.460501 0.274355 -0.263237 -0.948030 0.747595 -0.379715 -0.766648 0.091701 -0.061485 0.593689 1.146705 -0.176924 -1.368335 0.557040 0.069619 -0.117774 0.366060 -0.894966 -0.962538 -0.418094 -1.957464 0.271223
ol -1.109832 -0.021333 -1.490904 -0.587688 -0.180458 0.347446 0.347689 -0.903642 0.110448 0.546897 1.507450 0.031656 1.226112 0.104758 0.442442 -0.368285 0.966323 -0.603484 0.597160 1.143690 -0.711674 0.282305 -0.276290 -1.075560 -0.103815 -0.432716 -0.071210 0.393607 0.310002 -0.644671 1.271505 -1.142698 0.173163 0.985224 0.295283 -0.272678 0.327845 0.156068 0.730476 -0.898156 0.700442 -0.813069 1.313600 -0.304027 0.858858 -0.607276 0.629958 -0.386038 0.430666 -0.984314
textarea 0.163602 -0.532859 0.201136 -0.221060 1.760877 0.723983 -0.545910 0.298183 -0.234459 0.070772 0.133105 -0.029911 2.121576 -0.086741 -0.615586 0.493823 -0.179081 0.643375 0.153350 0.806538 -0.912574 -0.343432 -0.507472 0.741526 0.517037 -1.560865 -0.886449 0.495775 0.035756 -0.114667 -0.817971 -0.349934 0.663291 -0.989352 -1.238175 0.480252 0.615519 -1.130120 0.294305 0.197183 0.465377 0.747034 0.522232 -1.327781 -0.053716 -0.657983 1.398801 -0.355735 0.777684 0.347442
h4 -2.311461 -0.023811 -0.001897 -0.542667 -0.185341 0.006511 -0.292982 -0.414055 0.550948 0.663537 0.799342 0.248070 0.266055 0.368039 -0.004926 -1.066350 0.089481 -0.094596 0.801909 0.801561 0.875715 0.079323 0.081811 0.345599 -0.030942 -1.249503 -0.033773 -0.125761 -0.291564 0.078552 0.160682 -0.475561 0.188579 -0.266160 -0.406542 1.104503 -0.970691 -0.100176 1.289561 -0.983018 0.373822 -0.279140 -0.042948 -0.342399 -2.091821 0.192573 0.008930 -0.090092 0.573917 -0.624914
section -1.760429 -0.664631 0.000104 -0.881361 -0.214283 -0.904998 -0.387403 0.292636 0.172721 0.126980 0.360282 -0.024121 -0.232902 -0.836790 0.634926 -0.484097 0.145113 -0.046833 -0.213134 0.039590 0.703460 -0.701598 0.071200 -0.200944 0.374374 -0.833199 -0.298354 -0.132136 -0.255551 -0.177972 0.422500 0.993740 0.245741 -0.603724 0.584628 0.534416 1.322150 -0.536709 0.699943 -1.654032 0.247065 -0.681752 -0.053974 0.685349 -0.934661 -0.736901 0.891178 -0.454546 0.812860 -0.285704
select 0.759836 0.389704 0.411258 -0.078246 0.228152 1.371067 0.456914 -0.260884 -0.553390 -0.409107 0.791783 -0.433265 0.281568 0.506357 0.442009 1.947244 0.661144 0.903590 0.419280 -0.702461 -0.119466 -0.529573 0.345040 0.110202 -0.009126 -0.615507 -1.274612 -0.009260 0.136905 -0.028186 0.066001 -0.103553 -0.112649 1.142999 -0.757389 1.276624 1.425529 0.517650 1.217172 -0.939944 -0.677030 0.622296 -1.209140 -0.692197 -2.036119 -0.881758 -0.781452 -0.974274 0.583332 0.875141
g-emoji 0.683739 0.343329 1.429037 0.333984 0.440264 -0.371981 -0.259881 0.836292 -0.023942 -1.484764 -1.031871 0.262343 0.493601 0.020846 0.071167 1.348321 -0.666179 0.461829 -1.052990 1.290451 -0.426508 -1.210964 0.639772 0.112747 0.398765 -0.092190 -0.487055 -0.392977 0.379173 -0.768569 -0.788564 0.560714 0.537676 -0.772715 0.113010 0.745923 0.162692 -0.563143 0.217654 0.311301 1.096605 -0.719433 -0.733162 0.386121 0.521739 0.279353 1.612754 1.019667 1.029607 -0.584027
abbr -1.586688 -0.399270 -0.485728 0.053758 -1.488102 -1.377062 0.725928 -0.477988 -0.354691 1.153308 -0.954654 -0.356250 -0.357848 -0.658556 -0.578000 0.013011 1.830613 0.077193 0.267291 -0.056582 0.255327 -0.626447 -0.404682 -0.732971 -0.986888 -0.300876 -0.268486 -1.122133 -1.093616 -0.866782 1.303848 0.431256 -0.596972 -0.753726 0.184524 -0.401605 0.853848 -0.135413 -0.057994 -0.486835 -0.491064 0.720089 0.770665 1.546059 -1.321643 0.113715 -1.080928 -0.251743 -0.334617 1.131012
ellipse 0.381986 0.784547 -0.508476 1.361708 -0.370669 0.262970 0.058219 -0.438109 0.570021 -0.459692 2.103706 -0.915627 -0.610148 0.805732 -0.861303 -0.101495 -0.891516 -0.594414 0.133140 -0.711213 0.850979 -0.630970 0.023507 -0.314180 0.427647 1.341311 0.631849 -0.622280 -0.253571 -0.117494 -0.461587 0.952623 -0.580946 0.813833 1.721585 0.301956 -1.133948 -0.131619 -1.817883 -0.384443 -0.509939 -0.095555 -1.101242 -0.059413 -0.067371 1.447593 -0.939352 -0.088632 0.849306 -0.935686
html-blob -0.197255 -0.636032 -0.156128 -0.600665 -0.660470 0.330720 0.028106 0.035669 -0.927131 -1.383955 -1.989522 -0.418052 0.249689 0.294162 -1.262612 -0.341192 0.187104 0.038282 -0.586429 -0.121610 0.071647 -0.405397 0.638736 -1.322541 0.564681 -0.364053 -0.697508 -0.287315 0.797752 -1.292873 0.062404 0.523018 -0.671425 -0.222340 1.185256 0.689242 -0.282655 -0.553039 -0.449426 0.696888 0.463472 0.054100 -0.944959 -0.059954 0.144540 -0.474248 -0.468454 0.075739 -0.521663 0.254409
nav -1.032408 -0.905807 -0.482415 0.414013 0.502389 -0.192474 -0.016206 -0.445329 -0.052782 -0.751984 0.414409 -0.157644 -0.011708 -0.770370 -0.455317 0.358457 0.207249 -0.785880 1.094525 0.543282 -0.584707 0.026080 -0.025983 -0.004231 0.237228 -0.585159 -0.563154 0.884394 -0.032409 -0.111361 -0.362862 0.100443 0.510286 -0.268250 -0.222553 0.427550 0.697198 -1.000239 0.638424 0.347805 1.782073 -0.379675 -0.436519 0.397499 -1.214272 -0.880944 1.072772 0.109099 1.359545 -1.015488
wbr 0.842445 -0.149206 -1.320098 -0.522255 0.799908 -0.065906 1.037808 -1.604308 1.028168 0.743747 1.120418 0.763430 -0.325717 0.861439 0.066791 -0.984752 0.970461 -1.329281 -0.552384 1.030394 -1.088493 1.590692 -0.820282 -0.412238 -0.099342 0.193962 0.078664 -0.933674 0.384603 0.923002 0.691732 -1.300495 0.096451 1.462629 -1.041245 -1.237107 0.616452 0.847036 0.254004 0.388352 -0.608830 0.131925 0.546294 -0.324149 1.946954 0.382924 -0.321354 -0.200096 -0.877048 -1.052016
cite -1.513976 0.486318 -0.777769 -0.284623 0.685650 0.239707 0.385544 -0.994638 -0.601918 1.427839 0.689900 0.810285 0.260558 -0.796066 0.254398 -1.036218 0.819417 -0.444870 0.749296 0.943397 -0.440377 0.777299 0.871946 -0.342133 -0.650163 0.276454 -0.016974 0.514950 0.245969 -0.331439 1.280031 -0.930565 0.554585 0.216365 0.362782 -1.005226 -0.380501 1.065981 0.269291 1.114185 0.693539 -1.298485 1.492783 -0.301696 1.046022 -0.364151 -0.002560 -0.234979 -0.907029 0.120537
source -0.273804 0.692981 -0.162377 0.344293 0.014679 -2.510776 0.369664 -0.081647 0.665629 -0.819434 -1.016165 0.999947 -0.657157 -0.379509 1.128934 -0.227866 0.961156 0.226661 -0.999996 0.074511 0.415094 -0.196556 -0.381869 -0.975964 -0.097897 0.469007 -0.641522 -1.379678 -0.334699 0.086631 0.271972 0.593094 0.119244 -0.933153 0.971587 -1.206876 0.308294 -0.098974 -0.605019 -0.406188 -1.151277 0.385236 0.170686 1.375685 0.565827 0.530284 0.916832 -0.094793 -1.047416 -0.431220
header -0.526326 -1.465074 0.460220 -0.740964 -0.364735 0.013224 -0.325357 0.246714 -0.772963 -0.632645 0.867684 -0.242615 -0.456282 -1.012891 0.080086 -0.141333 -0.390326 -0.124956 0.555401 0.335033 -0.394206 -0.297519 0.189778 -0.108445 0.426983 -0.970049 0.687312 1.476258 -0.317723 -0.372683 0.229525 0.206594 0.299672 0.359129 -0.608566 0.004636 1.483017 -0.389965 0.587459 -0.565678 1.179983 -0.715250 0.239847 1.518428 -0.734588 -1.658046 0.719649 -0.408859 0.559813 -0.500087
clippath 1.009289 -0.409803 0.392700 2.083574 0.074093 0.832688 -0.118886 0.683798 -0.727791 -1.550784 0.165083 -1.241876 0.195323 0.413632 -0.363219 0.226226 0.817565 0.761254 -1.270914 -0.403724 -0.210569 -0.649900 1.167451 -0.147828 -0.764582 -0.740997 -0.928491 0.212476 0.531341 -1.212546 -0.521297 0.329161 0.227340 -0.256889 -0.113065 0.328014 -0.726032 0.183808 0.017566 0.573364 0.670853 -1.029944 -0.287248 0.012812 1.528054 0.866869 0.350810 0.613617 0.595072 -0.661431
h5 -2.043169 0.823128 0.104413 -0.123842 -0.451158 0.111383 -0.191185 -0.015579 -0.489835 1.060949 0.909319 0.474713 0.183502 -0.581468 -0.280755 -0.112424 0.153029 -0.312897 1.209084 0.955850 -0.232523 -0.178958 0.513970 0.128177 -0.212607 0.428072 -0.194056 0.413414 -0.262655 -0.321560 0.636953 -0.582787 0.347485 0.171569 -0.083858 0.954232 -0.805853 -0.256431 1.109671 -0.139099 1.786606 -0.619949 0.416831 -0.224260 -1.447657 -0.330202 -0.965193 0.187571 0.612610 0.354004
relative-time -0.944692 0.311214 0.651596 -0.394329 -0.147490 -0.550757 0.423815 -1.088089 -0.189348 -1.215289 0.025392 0.809225 0.044857 0.543733 -0.462166 -0.364009 0.359591 -0.526359 -0.284287 1.162619 -0.121762 -0.378203 0.053547 -0.670390 0.654303 -0.588245 -0.482128 -0.708816 -0.615810 -1.056022 -0.512723 -0.174421 0.424307 -0.421619 -0.029914 0.691004 -0.710149 -0.877492 0.425824 -0.296194 -0.062620 0.223781 0.548273 0.677258 -0.046242 0.563729 0.354852 0.575752 0.267874 -0.801434
area -0.115745 -0.112019 0.677516 0.834138 -0.136799 -1.545926 -1.106203 -0.726919 -0.126979 0.556601 -0.937613 0.337980 -0.853565 -0.164931 0.634315 0.152592 0.364052 1.134681 -0.477030 -0.930558 -0.643389 -0.043664 1.074503 -0.850376 0.049764 -0.658388 1.372568 0.249432 -1.281064 0.166363 0.993790 -0.832760 0.007069 -0.257203 -0.383299 -0.735618 0.333320 0.914552 -0.093681 0.362621 0.018285 0.937881 0.467167 0.180653 0.514070 -0.329503 -0.543058 -0.193069 -1.522002 0.048451
col -0.569586 0.043079 0.202088 -0.578086 -0.207957 -1.136330 -0.704166 0.830682 -1.714871 0.371180 -1.129370 0.750440 0.795564 0.400426 -0.921662 -0.327705 -0.311903 1.204467 -1.216010 0.423113 0.746329 -0.402109 -0.454665 0.542349 0.341748 0.287688 -0.053795 0.332088 -0.914432 -0.595426 -0.335261 -0.027424 -0.339151 -0.869588 0.431444 0.427375 -0.876710 -0.361170 -0.868334 1.338365 -0.119900 1.267301 1.035443 -0.494064 0.164394 0.692182 -1.209217 -0.029347 -1.633186 1.445697
amp-analytics 2.005955 0.198078 -0.673039 1.974749 0.274292 -1.802084 0.098366 0.903700 1.101155 -0.258889 0.461312 -0.019544 -0.384389 -0.144761 0.568288 1.137341 0.748298 -0.126579 1.091873 -0.588172 -0.707907 0.798440 -0.850011 -0.033810 -0.452538 1.693325 -0.867872 -0.229469 0.362839 1.611052 -0.292830 0.122189 0.709568 -0.552035 -0.532634 -1.612902 0.528087 1.239634 -0.079055 -0.284072 0.243789 -0.747900 -0.423016 0.095116 0.048295 0.175039 0.822417 0.704223 0.319200 -0.202985
map -0.266440 -0.187984 0.811141 0.996207 -0.524505 -1.703237 -1.191794 -0.582786 0.017935 0.631014 -1.150777 0.314670 -0.775809 -0.213869 0.601662 -0.168218 0.278856 1.078432 -0.531615 -0.764095 -0.774256 0.040627 1.210673 -1.152620 -0.077046 -0.378189 1.384103 0.168150 -1.252727 -0.046768 1.040209 -0.730935 -0.094909 -0.424839 -0.603696 -1.101504 0.264961 1.052377 -0.172433 0.231873 -0.096083 0.760606 0.581571 0.207893 0.764250 -0.385512 -0.596278 -0.091274 -1.556882 -0.114537
small -0.555570 -0.794357 0.183859 -1.154644 0.480511 -0.310410 0.542594 0.054309 0.415000 1.203438 0.367899 -0.651217 0.659706 0.612385 -0.556178 0.609484 -0.151897 -0.972664 0.321067 0.484516 -1.046408 -0.772238 0.497298 0.025218 0.283643 0.181940 -0.190560 -0.549318 -0.963643 -0.180271 0.937839 -0.832370 -1.156527 0.012941 -0.538352 -0.316172 0.489578 0.875664 1.577292 -1.061935 -0.548873 0.253398 1.570135 -1.226725 -0.683459 -0.376454 -0.157515 0.449810 0.010089 -0.625243
dl -0.599362 1.022697 -0.301431 -0.042041 -0.426852 0.161602 0.772710 -0.907591 0.193530 -0.209969 0.268264 -0.497362 0.505342 0.027178 0.653006 1.119869 0.622515 0.149146 0.198707 -0.386997 0.472359 -0.788974 -0.266123 -0.707089 -0.427974 -0.247618 -1.107956 -1.073589 0.258639 -0.556799 0.708441 0.085777 -0.868814 0.215474 1.033438 0.790746 0.566881 -0.041578 0.451478 -1.373167 -0.975461 -0.328340 -0.078652 0.801525 -2.022655 0.538520 0.066981 0.137169 0.532169 0.204660
details 0.390874 -0.507505 0.257883 1.128075 0.113438 -0.326895 -0.230186 0.616481 0.415499 -1.200626 -0.189331 -0.238258 0.085115 0.078423 0.083540 0.744881 0.413788 0.098728 0.071626 0.288484 -0.646731 -0.179235 0.408929 0.226106 -0.267327 -0.048694 -0.420266 0.287430 0.206240 -0.330387 -1.216308 0.474679 0.941649 -0.492320 -0.985474 -0.098419 0.394968 -0.528615 0.536748 -0.298742 0.373062 -0.384985 -0.515920 -0.434891 0.620462 -0.106689 1.060898 0.214121 1.450111 -0.816834
summary 0.314699 -0.652858 0.277540 1.246051 -0.025959 -0.164538 -0.267064 0.562945 0.515407 -1.305151 -0.072971 -0.325831 0.142651 0.059497 0.044841 0.626017 0.434605 0.043779 0.181446 0.145809 -0.766756 -0.052269 0.509887 0.297387 -0.243122 -0.177572 -0.467625 0.425770 0.153415 -0.332660 -1.400076 0.532312 1.037315 -0.562738 -1.097030 -0.172552 0.342077 -0.681218 0.620671 -0.402875 0.341725 -0.385536 -0.640233 -0.401902 0.673737 -0.253314 1.264677 0.259876 1.682102 -0.925453
aside -1.174307 -1.107574 -0.093783 -1.257028 -0.051492 -0.245123 -0.081321 0.319676 0.586851 1.433149 1.157011 -0.188458 -0.468728 -0.480131 0.510771 0.033322 0.269257 0.613503 0.579964 0.293930 1.243140 -0.743262 0.378800 0.364638 -0.550610 -2.066476 1.123533 -0.159783 -0.249055 0.258379 0.606870 0.362560 1.179789 -0.119386 0.579657 0.478610 0.802807 0.344160 1.001391 -1.113472 0.625409 -0.133478 0.556290 0.535257 -0.494554 -0.892603 0.820385 -1.274804 0.542654 -0.449640
u -0.363898 1.282550 0.178225 -1.051297 0.580668 -1.272165 0.492058 -1.020115 -0.527778 0.768713 0.019999 1.656883 0.486231 -0.069601 0.201530 -0.285963 0.502530 0.482166 -0.347646 0.324813 0.610219 0.925349 -0.626899 0.212578 0.604407 -0.162731 0.352595 -0.801666 -1.439254 0.375094 -0.765072 -1.416324 0.369542 -0.523195 0.187871 0.003780 -0.314380 0.830329 0.651560 0.822647 -1.576734 1.192752 0.107602 -0.198230 -0.009173 -0.172452 -0.598472 -0.223363 -1.961833 0.457139
picture -1.473676 0.014965 -0.278573 -0.340913 -0.650495 -1.857053 0.394603 -0.472924 -0.597127 -0.136001 -0.794443 0.008024 -0.786032 -0.213991 0.663944 -0.354466 0.794167 -1.025886 -0.735588 -0.091951 -0.183841 -0.237975 0.399194 -1.134222 -0.000581 0.587872 -0.185421 -0.524484 -1.042662 -0.826360 1.010411 0.669538 -0.357168 -0.489507 0.572177 -0.497172 0.415994 0.407569 0.323958 -1.137219 -0.758530 0.097135 0.876502 0.249864 0.792408 0.172978 -0.172159 -0.019447 -0.191821 0.092108
stop 0.316391 -0.176549 -1.371804 1.626511 0.358266 1.009561 -1.030021 -0.172930 -1.330903 -0.251481 -0.088534 -0.965799 -0.186803 -0.147002 -0.176996 0.356183 -1.342397 -1.191174 0.288205 -0.570227 0.353180 0.396063 -0.070659 -0.490999 -0.577425 -0.133365 -0.305788 0.555072 0.751045 -0.721613 0.237095 1.019028 -0.109250 0.844360 0.489691 -0.612082 -0.360058 -0.158106 -1.866265 0.414814 -0.288895 1.042830 -0.760407 -2.005376 1.212644 0.988945 0.025946 -0.387635 0.975320 0.218020
video 0.738950 -0.387837 -0.198914 0.544063 0.181419 -2.043240 -0.083413 0.468128 0.287260 -1.641379 -0.628034 0.636759 0.165925 0.177811 0.339547 0.049082 0.732007 0.557700 -0.943336 0.872234 0.183642 -0.750888 -0.227428 -0.250281 0.529446 -0.075910 -0.324174 -0.305969 -0.172410 -0.104812 0.015716 -0.126374 0.271282 -0.434430 0.239398 -0.947755 0.763001 0.020744 -0.495366 0.156432 0.490283 0.271314 0.275222 1.093975 0.283842 -0.333915 1.090475 0.211788 -0.472206 -1.096135
article -1.860094 -0.745959 -0.008727 0.003436 -0.908631 -0.310393 -0.485331 0.180788 -0.082789 0.596465 0.299910 -0.343216 -0.397791 -1.342609 -0.022543 -1.464953 0.123388 -0.413751 0.907681 0.520333 -0.395563 0.157223 0.390499 -0.230773 -0.173265 -0.408706 0.863906 0.428475 -0.273535 0.169161 0.996326 -0.286726 -0.175222 0.265356 -0.573979 -0.363061 0.226245 -0.386197 0.421298 -0.544984 1.615592 -0.340193 0.741961 1.546039 -1.113003 -1.138959 -0.008042 0.217962 0.001602 -0.528508
figure -1.394921 0.666829 -0.540886 -0.095575 -0.113350 -0.844992 -0.279518 -1.350646 0.324792 -0.024507 -0.906530 0.930245 -0.546738 -0.089346 0.404362 -1.236417 -0.091189 -0.599644 -0.750869 1.163255 0.503469 0.154366 -0.004009 0.259634 0.503296 -0.252407 0.544067 -0.676561 0.330753 0.011671 0.686938 -0.318002 -0.590061 -0.153042 -0.014903 -0.054521 0.184461 0.315482 -0.274275 0.116427 0.793214 0.112851 0.538797 0.785202 0.067165 0.198824 0.855463 0.541779 0.232934 0.218432
footer -0.570095 -0.177234 -0.105457 0.281725 0.506245 0.351457 -0.000984 0.364246 0.691787 1.074991 0.657878 -0.299159 0.197691 -1.323191 -0.113942 -0.499368 0.036206 -0.523998 0.649448 0.445046 -0.403721 -0.409837 0.116553 0.704644 -0.645324 -0.145707 0.266071 -0.362640 -0.032957 0.519526 0.299825 -0.016218 0.125035 0.098670 -0.516896 -0.650266 0.539058 -0.260954 0.767327 0.053330 0.473239 -0.277525 0.907622 0.503826 -0.882775 -0.185897 0.234461 -0.047308 0.999288 -0.933826
h6 -1.501559 0.907073 -0.850173 0.005213 -0.261437 0.774301 -0.769495 -0.907163 0.361834 0.644588 -0.119887 -0.346790 0.768874 0.079464 0.848498 -0.386033 -0.123592 -0.357670 1.001946 -0.198972 -0.796063 0.766576 0.712920 -0.439621 -0.705608 0.400308 0.010916 0.506000 0.400622 0.836406 1.715029 -1.808227 -0.912653 1.332175 -0.303891 -0.203055 -0.380356 -0.442155 0.237552 -0.521460 1.166158 -0.217405 0.520264 -0.667799 -1.777897 0.431640 -0.654921 0.686923 -0.081645 0.046709
fieldset -0.055793 0.235988 0.238486 -1.066340 0.126872 0.316359 -0.998117 0.165024 0.002911 0.141819 -1.655302 1.018359 0.657484 0.104882 -0.063627 1.488956 -0.669506 1.439249 -0.226313 0.216520 0.004322 -0.848837 0.047691 -0.925578 0.595900 -0.136421 -0.121069 0.453603 0.802763 -0.620230 0.065825 0.079793 0.222956 0.193717 0.463519 0.650256 0.822801 -1.281927 -0.310330 -0.033849 -0.195369 1.646577 -0.640199 -1.393697 -1.090153 -0.540070 -1.249877 -1.423207 -0.718211 -0.223360
i-amphtml-sizer 1.227577 0.687685 0.177611 1.203766 0.141661 -0.210316 0.250112 0.225580 -0.030845 0.183397 0.447314 -0.235824 -0.203411 0.063590 0.111648 1.073244 -0.094211 0.406868 0.254953 0.290933 0.468932 -0.280729 0.009425 0.230872 -0.112783 -0.361087 -0.643997 -0.767236 0.568275 0.341734 0.568961 0.210285 -0.450517 0.096880 0.328279 0.297490 0.473266 0.987560 -0.015742 -0.126291 0.435186 0.033052 -0.148388 0.303604 -0.792485 0.554934 0.363162 0.401729 0.380262 0.447889
legend 0.025974 0.027788 0.206328 -1.084853 -0.178182 -0.022513 -0.785407 0.251783 -0.130438 0.261109 -1.896345 1.156273 -0.059091 0.161079 0.075957 1.421452 -0.790872 1.445357 -0.361766 -0.064386 0.474682 -0.862035 0.305488 -0.824772 0.463935 -0.130037 0.328775 0.650012 0.663246 -0.762059 0.135010 0.420901 0.353044 0.131662 0.715353 0.360002 0.765064 -0.871430 -0.684613 0.237276 -0.387942 1.529147 -0.560335 -1.329049 -0.550992 -0.362379 -1.410825 -1.618229 -1.149338 -0.281044
nobr 0.463199 0.159054 0.387642 0.907655 -0.113115 0.298034 -0.838500 0.034455 -0.754142 -0.038246 -0.681650 -0.460923 0.323437 0.198975 0.016345 -0.637783 0.014501 0.722940 0.031870 -0.765284 -0.801753 0.854790 1.537413 -0.427756 -0.222549 -0.638049 0.223522 0.540823 -0.133567 0.368810 0.791226 -1.005230 -0.366795 0.325677 -1.064794 -0.375903 -0.184235 0.460632 0.013470 0.564199 0.167178 0.284257 -0.291381 -0.988846 0.144767 0.013022 -0.988890 0.165677 -1.065514 0.560844
thead -1.072438 0.030238 -0.765105 -1.141260 -0.288790 -0.526306 -0.135583 -0.070217 -0.973201 -0.305032 -0.073946 0.715957 0.929904 0.685484 -0.682900 -0.373426 -0.023375 -0.251222 -0.819292 0.699320 0.198872 -0.542584 -0.811715 0.224254 0.793071 1.024248 -0.381504 0.514775 -0.749883 -0.899969 -0.312078 -0.212615 -0.799554 0.263777 0.322368 0.760985 -0.352079 -0.980839 -0.224606 0.051209 -0.032862 1.016299 0.715829 -0.697223 -0.001094 0.126282 -1.263106 -0.000779 -0.051440 0.407557
ins -0.162843 -0.646329 0.194510 -1.231730 0.382244 -0.026654 0.273258 0.588091 0.301422 1.085686 1.191978 -0.140937 -0.157458 -0.269315 0.780025 0.047961 -0.222721 1.173527 0.013620 0.133030 1.139927 -0.620460 0.197067 1.106470 -0.132914 -1.506641 0.929985 -0.200524 -0.291654 1.066058 0.149357 -0.326019 0.156246 0.250691 0.521870 0.750526 0.934340 0.934705 1.021892 -0.209061 -0.014337 -0.106680 0.110398 0.817043 -1.146232 -0.714294 0.415940 -0.781805 -0.521807 -0.300343
amp-social-share 0.787868 0.452087 -0.106515 0.484058 0.300931 -0.276386 0.131797 0.443713 0.179333 0.050705 0.173838 0.106847 -0.292395 -0.097510 0.532760 0.986167 -0.195030 0.443850 0.284878 0.351222 0.494742 -0.311195 -0.217226 0.238373 -0.102442 -0.096461 -0.571352 -0.302685 0.834288 0.529350 0.357693 0.275125 -0.143872 0.242835 0.376666 0.105060 0.769481 0.495417 -0.078274 -0.358095 0.519329 0.148699 0.005461 0.154836 -0.772863 0.083109 0.406670 -0.035205 0.227893 0.130071
strike -0.147097 0.140260 -0.018953 -1.601462 0.028286 0.648932 0.609694 -0.407363 -0.545396 0.750235 -0.243134 0.269709 0.172048 0.404532 0.000462 -1.072517 0.441371 -0.091787 -0.231983 -1.001569 0.430531 0.424591 -0.091440 0.433360 0.029520 0.448801 0.012848 -0.066598 -0.592270 0.396923 0.184164 -0.399817 -0.455239 0.148923 -0.282452 -0.051402 0.089390 0.206597 0.171193 -0.014061 -1.792696 0.612744 0.751689 -0.548442 -0.146455 0.424403 -1.495425 -0.551492 -1.314431 1.338315
kbd -0.697341 -0.296048 -0.519544 0.721951 -0.027662 0.506242 0.643175 -0.790788 -0.924717 -1.070035 -0.371701 -0.952992 -0.674789 0.097809 -0.952795 -0.181905 0.116706 -0.780157 0.445998 -0.306880 0.446671 0.279567 0.656504 -0.076901 -0.177743 -0.706023 -0.527921 -0.117585 0.597236 -0.700136 -0.627442 0.417257 -0.381638 -0.110474 0.935767 1.023487 -1.042150 -0.318623 -0.528104 1.271681 0.819257 -0.526958 -1.017748 0.330511 -0.428419 0.457098 0.447053 0.549141 0.717383 -0.250753
polyline -0.894851 -0.270724 0.056163 1.879686 -1.157557 0.505867 -0.351718 0.470611 -0.137776 1.384879 0.691146 -0.285553 -0.508224 -0.040593 -1.185177 -1.229184 -0.125459 -0.057327 1.303754 0.502039 0.656811 0.851270 -0.293069 0.045875 -0.713617 -0.082026 -0.182723 0.297229 0.470988 -0.468594 -0.026596 0.681421 0.326304 -0.553418 -0.804681 0.450548 -2.045575 0.200723 -0.354365 0.866074 0.693118 -0.721463 -0.204311 -0.274079 -0.144647 0.561033 -1.099673 -0.045036 0.242815 -0.408207
ts-icon -1.166427 0.104842 -0.423363 -1.336820 0.103394 -0.199670 0.614868 -0.767632 -0.943099 0.470868 -1.009137 0.504322 0.068346 0.065786 -1.083760 0.062750 0.172224 -0.140553 -0.302488 0.451731 0.789985 -0.574009 0.169592 -0.053662 0.066741 -0.087068 -0.231568 -0.700947 -0.015901 -0.903492 0.085712 0.075333 -0.253773 -0.217957 1.367076 0.492574 0.126960 -0.565647 -0.104151 0.983215 -0.413254 0.611183 0.038081 -0.179727 -0.962913 0.397140 -1.252257 -0.281408 -0.951073 0.633540
image 1.069671 0.502698 0.721777 1.992335 -0.058185 1.539934 -0.242925 0.984864 -0.034685 -0.041570 0.399158 -0.793123 -0.439705 -0.150490 -0.205583 0.248248 0.068039 0.938176 0.086857 -0.665886 -0.212956 0.133922 0.279289 -0.196607 -0.469338 -0.024743 -0.812918 0.388033 0.956626 0.014840 -0.124331 1.014800 0.307070 0.020018 -0.024812 0.648468 -1.179832 0.020876 -0.588065 0.417815 0.782143 -0.559647 -1.008633 -0.239234 1.119499 0.264610 -0.389718 -0.174294 0.118199 0.039896
g-header-menu -0.176462 0.786281 0.488337 -0.458183 0.106275 -0.028885 0.089217 0.040668 -0.064366 0.211767 0.686207 0.820836 0.222510 -0.243222 0.699489 -0.385766 -0.243802 0.078132 -0.637265 0.994226 0.178968 -0.115805 -0.001482 0.272695 0.056224 0.211608 0.192278 0.125053 -0.098034 0.037629 0.619566 -0.539502 0.101060 0.489568 -0.019463 -0.089026 0.107244 -0.036171 0.240346 -0.070003 0.026965 -0.224994 1.116104 0.613988 0.327640 0.540723 -0.068653 0.210526 -0.377145 -0.392437
ytd-badge-supported-renderer 0.237275 0.373219 0.603704 0.327851 0.303396 0.825143 0.563819 0.456147 -0.609762 0.593286 0.440262 0.015825 0.108455 -0.209220 0.031270 -0.416967 0.319832 0.069157 0.379217 0.715248 -0.813875 0.897964 0.714946 0.078664 -0.361884 -0.192012 -0.693606 0.446022 1.070833 0.268858 0.469530 -0.223232 0.224880 0.266644 -0.797210 0.148574 -0.096204 0.561999 1.022980 0.265231 0.915515 -1.085988 0.562733 -0.022087 1.148827 -0.323125 0.136315 0.144091 -0.272404 0.427550
g-img -0.600389 0.574187 1.013408 0.403168 -0.248486 -0.509283 -0.121016 -0.202057 0.703254 0.683955 -0.628933 0.726282 -1.359977 -0.340346 0.914850 -0.815995 0.077017 0.354251 -0.368030 0.572007 -0.151200 0.280167 1.069545 -0.715186 -0.235682 -0.126846 0.804415 -0.554583 0.178741 0.043387 1.427458 -0.226777 -0.006816 0.176701 -0.476109 -0.930340 -0.115296 0.654339 -0.294013 0.041408 -0.002074 -0.005871 0.238092 0.555000 0.927926 0.237419 -0.243895 -0.270468 -1.057332 -0.880416
radialgradient 0.672595 -0.308919 -0.703393 0.900388 0.404920 0.487204 -0.913010 0.369076 0.056485 -0.389833 0.448464 -0.827753 -0.379955 0.299208 -0.015844 -0.030381 -1.482110 -0.880993 -0.160517 -0.300042 0.311155 0.100021 0.012515 -0.146690 0.049410 0.372844 0.186135 0.263111 0.418152 0.345153 0.389601 0.799306 0.010390 0.748340 0.899515 -0.485146 -0.503818 -0.102849 -1.677277 0.009674 0.509909 0.406556 -0.803493 -1.168505 0.771645 0.837978 0.329352 0.087703 0.550539 -0.246056
line -0.351034 1.087819 -0.329633 1.618334 -0.725459 1.074998 0.635571 -0.247170 0.710504 0.805092 -0.775096 -0.806278 -0.877674 -0.511215 -0.420039 0.563141 -0.004530 0.373910 0.927826 -0.859518 0.216108 -0.137512 -0.319253 -0.383391 -0.987319 -0.024212 0.322179 -0.248439 0.786465 0.024829 -0.532187 0.779419 -0.682123 0.064584 0.685120 0.852174 -1.015292 -0.648399 -0.383041 0.538588 0.250009 0.358990 -0.866110 0.807345 -0.008749 0.045309 -0.353635 -0.106584 0.191867 0.216883
yt-icon -0.265545 1.238700 0.426335 1.167852 0.251805 0.597739 1.492252 0.594851 -0.847293 0.673777 -0.131480 -0.010634 -0.289910 -0.769178 -0.736244 0.534250 0.710985 0.553325 0.662214 0.609882 -0.150126 -0.189020 0.367280 0.169134 -0.767297 0.048230 -1.046995 0.157005 1.073804 -0.595546 -0.198904 0.858924 0.164483 -0.648451 0.024222 0.664686 -0.461156 -0.724754 0.127905 0.904140 0.233560 -0.491536 0.536022 0.657941 0.926948 0.753626 -0.493545 -0.024395 0.002572 0.450671
figcaption -1.526070 0.766806 -0.596251 0.119326 0.535076 -1.468529 -0.246847 -1.039838 0.383686 0.244736 -0.856992 1.149360 -0.518215 -0.373269 0.631857 -0.904231 0.200344 -0.139501 -0.664930 1.343237 0.524066 0.051120 0.201926 -0.125905 0.246221 -0.192778 0.304100 -0.747209 -0.104844 0.226474 0.848717 -0.641908 -0.435262 -0.269575 0.297245 -0.513488 0.026538 0.485678 -0.389621 0.594351 0.899797 0.169319 0.267738 0.752719 0.128317 0.012659 1.146368 0.296086 -0.457272 -0.279741
tt -1.586335 -0.064390 -1.308860 -0.559201 -0.460812 0.918970 0.893604 -0.719335 0.019379 0.839011 0.047485 -0.592700 -0.538225 -0.466894 0.043776 -0.453418 -0.099804 -0.858380 1.296673 -1.571434 0.967107 0.007364 -1.406857 -0.064227 -0.185313 0.670818 0.364188 0.430591 0.145815 -0.121622 -0.334558 0.427236 -1.202921 -0.032798 0.573739 0.100848 -0.629133 -0.463916 -0.603128 -0.216502 -1.101049 0.465130 1.029504 0.459346 -0.206694 -0.857294 -0.437841 -1.182484 -0.173575 0.943853
colgroup -0.474462 0.061909 -0.067934 -0.713014 -0.045362 -0.650709 -0.485636 0.264383 -1.432018 0.295580 -0.546504 0.486356 1.047947 0.386407 -0.807122 -0.383134 -0.555841 0.762251 -0.753227 0.290448 0.636890 -0.271103 -0.407919 0.307568 0.510814 0.098704 0.204886 0.444007 -0.692206 -0.415654 -0.505524 -0.355208 -0.319541 -0.591907 0.524665 0.528895 -0.928446 -0.223487 -0.596524 1.029803 -0.120917 0.832330 0.819772 -0.449174 0.198600 0.466332 -0.862676 0.110635 -1.229306 1.187139
progress 1.224032 0.067497 0.376786 0.705193 0.100520 -1.644249 -0.120441 1.065529 0.211761 -0.820224 -0.421077 0.533700 -0.516551 0.089862 0.808736 -0.176822 0.552580 0.604742 -0.742957 0.139462 0.168858 0.097052 -0.020236 -0.033121 0.102513 0.497818 -0.054116 -0.254183 -0.039280 0.916230 0.029336 -0.044608 0.358639 -0.292654 -0.165433 -1.181932 0.432752 0.387385 -0.204111 0.129449 0.045886 0.051115 0.178088 0.741089 0.756155 0.460572 0.360161 0.359528 -0.865404 -0.529930
yt-formatted-string 0.352755 0.496125 0.337356 0.445384 0.251567 0.726849 0.709256 0.313145 0.006692 1.050588 0.615883 -0.228306 -0.072866 0.190831 0.055666 0.518545 0.275548 0.142888 0.705103 -0.048761 -0.200272 0.797017 -0.299143 0.699499 -0.482692 -0.133196 -0.353910 0.132018 0.317262 0.538923 -0.257651 -0.230594 0.379149 0.153440 -0.893318 0.417759 -0.400533 0.346182 0.642170 0.202312 -0.152558 -0.135342 0.208903 -0.407042 0.257720 -0.003133 0.050668 -0.140942 0.140973 0.652154
main -0.524288 -0.681908 -0.373538 0.201629 -0.502235 -0.446136 -0.175011 0.308749 -0.378710 0.088659 0.584049 -0.273081 0.315204 -0.853713 -0.159236 0.335701 0.043302 -0.098093 0.551220 0.761280 -0.485291 -0.065760 -0.481008 -0.252303 0.405863 -0.374183 -0.037152 0.798600 -0.270904 -0.171517 0.511452 -0.041921 -0.069459 0.257542 0.010059 0.216981 0.851528 -0.072678 0.619666 -0.475344 1.530779 -0.157626 0.087584 0.747989 -0.460333 -1.347887 0.428426 -0.052908 0.293098 -0.418762
jsl -1.179498 0.231797 -0.400480 -0.604981 -0.006226 0.127302 0.158274 -0.655731 -0.367665 0.425572 -0.083146 0.459149 0.211565 0.071818 -0.034018 -0.159247 0.159366 -0.325690 -0.046942 0.476792 0.109842 -0.035451 -0.228720 -0.109401 0.225525 -0.087798 -0.267358 -0.075795 -0.267487 -0.443078 0.352884 -0.147406 -0.163917 0.199012 0.189826 0.318439 0.009136 -0.466081 0.139658 -0.221065 -0.085138 0.650605 0.473755 -0.490311 -0.029278 -0.107978 -0.408763 -0.472178 -0.140320 0.220685
dfn -0.580983 0.674832 -0.131053 0.263421 0.483248 0.302835 0.272799 -1.237534 0.192552 1.832803 0.861298 0.058809 -0.359253 -0.497062 0.367409 1.204139 -0.306323 0.369420 -0.000657 -0.682006 0.517485 -1.146125 -1.246477 0.157197 -0.504516 -0.004906 0.610320 -0.225613 -1.218770 -0.330272 0.334529 0.222346 -0.567844 -0.344333 0.783905 0.449906 -0.330325 -0.229771 -0.873106 -0.082271 -1.046752 0.899914 0.914059 0.986838 -0.288796 0.622906 -0.233764 -0.573031 -0.148857 0.951089
li-icon -1.124313 -0.265010 -0.627241 0.883722 0.117355 0.018050 0.697126 -0.178482 0.193382 0.370470 -0.580113 -1.019203 -0.883297 -0.047680 -0.575442 0.685998 0.578175 -0.278400 0.561689 -0.487565 -0.201211 -0.717183 0.292588 -0.196801 -0.331971 -0.241400 -0.007308 0.045600 0.113632 -0.583004 0.054196 0.894233 -0.319886 -0.681679 0.895707 0.600848 -0.519694 -0.454845 -0.427479 0.268274 0.940607 -0.246332 0.190157 0.030116 0.926610 0.067475 0.826497 -0.030928 0.681343 0.187272
time-ago 0.623621 -0.678771 1.191988 -0.397702 -0.763593 -0.232930 0.301732 0.123745 -1.003605 -0.727273 -0.706472 -0.061714 -0.429760 0.779329 -0.775875 -0.668122 0.277786 0.132741 -1.011902 -0.152098 -0.159135 0.239273 0.266312 -0.267328 0.581555 0.050601 0.122839 0.035202 -0.610521 -0.830333 0.042805 -0.096926 -0.646379 -0.212743 -0.611943 0.087784 -0.284800 0.093528 -0.129658 0.495407 -0.924057 0.173927 0.284489 0.646183 0.531401 0.174585 -1.112876 0.397557 -1.231036 0.465282
include-fragment -0.121110 -0.811073 0.541534 -0.429934 -0.784684 -0.334658 -0.462586 0.531972 0.800513 -0.436698 -0.910892 0.468575 -0.607039 -0.297576 -0.079392 -0.550847 -0.180604 -0.245863 -0.871443 0.492409 -0.595501 -0.629635 -0.414683 -0.372154 0.737167 0.622618 0.525135 0.731867 -0.145731 -0.392247 0.628294 0.729498 -0.305766 0.004555 0.266457 0.108984 0.399801 -1.143724 -0.332224 -0.086462 1.037975 -0.126799 0.374669 1.405939 0.505381 -0.582253 0.045556 0.040417 -0.237164 -0.686520
bdi 0.229090 -0.047690 -0.932701 1.741524 0.072223 -0.151516 -0.283459 -0.024041 1.051967 0.395379 1.080652 -0.324944 -0.438325 -0.460589 0.457610 0.854802 -0.199823 -0.375313 0.688150 -0.179423 -0.291729 -0.354609 -0.770290 0.123429 -0.608847 0.573099 0.299406 0.649900 0.129639 0.308226 -0.341465 0.511879 0.314637 0.036710 -0.345639 -0.336812 0.182777 -0.355684 -0.539344 -0.560623 0.555841 -0.223858 0.272913 0.417023 0.238868 0.457556 0.741922 0.045837 1.517356 -0.825644
yt-img-shadow 0.248295 0.284801 0.925877 0.323025 0.352832 -0.312849 0.332824 0.542617 0.047620 0.324219 -0.193117 0.562761 -0.551592 -0.077231 0.266362 -0.186655 0.365138 -0.118053 -0.157924 0.690621 -0.592249 0.372749 0.482088 0.212258 -0.212778 0.518921 -0.436933 -0.151076 0.188712 0.211806 0.368877 0.185422 0.534264 -0.333427 -0.808664 -0.375593 -0.072896 0.458581 0.351894 0.267736 0.212075 -0.492569 0.438940 -0.117995 1.232389 0.326807 0.020273 0.189847 -0.339095 -0.064709
ytd-thumbnail 0.387371 0.339405 0.498860 0.463438 0.401088 -0.598814 0.235598 0.464777 -0.047109 -0.070040 0.051851 0.913398 -0.557032 -0.246403 0.487768 -0.299511 0.139099 -0.184300 -0.353932 0.871117 -0.369185 0.215355 0.213526 0.207668 -0.061524 0.848439 -0.404381 0.215877 0.433757 0.200701 0.293354 0.227863 0.435346 -0.061142 -0.570652 -0.573659 0.130639 0.173018 -0.071392 0.285087 0.390394 -0.414989 0.720393 0.226384 1.431893 0.483643 0.036475 0.157497 -0.314771 -0.477310
del -0.991884 0.798361 -1.193491 0.139975 0.597700 0.251813 0.023545 -1.248863 0.011537 0.944224 0.210008 0.120804 0.468217 0.075306 0.476785 1.119974 0.128405 -0.148474 0.086375 -0.027116 0.081219 -0.212671 -0.758538 0.484910 -0.385206 0.035438 -0.050415 -0.418228 -0.187163 0.069063 -0.397810 -0.476678 -0.260805 0.258202 -0.074301 0.339735 0.130957 -0.637105 -0.280578 -0.260614 -0.490847 1.430301 0.289544 -0.785244 -0.388152 0.410271 0.131794 -0.316879 1.051404 0.855937
g-section-with-header -0.221232 0.527293 -0.279061 -1.068762 1.073747 -0.018382 0.331661 0.181477 -0.565127 0.606011 0.533432 0.747347 0.905650 -0.199888 0.843810 0.277455 -0.642409 0.145059 -0.194857 1.216048 0.379882 -0.211794 -0.029976 0.458642 0.054397 -0.209359 -0.467000 0.267150 0.697203 0.224223 0.598616 -0.342688 0.333423 0.254711 0.241680 -0.121218 0.660736 0.486630 0.276534 -0.054479 0.722597 -0.472111 1.254281 -0.365209 0.447028 -0.097625 1.048281 -0.237129 -0.089652 0.462450
g-dialog 0.638113 -0.075522 0.329833 -0.415386 0.110111 0.128598 0.068291 0.908510 -0.486639 -0.739957 -0.465485 0.150665 0.129505 0.151428 0.063906 0.038226 -0.146835 0.497833 -0.040644 0.254272 0.415175 0.128158 0.347118 0.238531 0.350815 -0.244412 -0.527796 0.130120 0.821133 0.185510 -0.094831 0.155320 0.178520 0.114352 0.144337 0.132081 0.234608 0.193302 0.156965 0.171320 0.398928 -0.241546 -0.345379 -0.315177 0.021583 -0.339452 0.218567 -0.097838 -0.317711 0.013043
ytd-menu-renderer 0.916915 0.193305 0.532925 0.730856 0.197348 0.127503 0.524147 0.834221 -0.591838 -0.292425 -0.509654 -0.029040 -0.055649 -0.162532 -0.176868 0.365080 0.171590 0.580001 0.070557 0.328224 -0.189896 0.140907 0.553662 0.163298 -0.260459 -0.221901 -0.718796 0.125826 1.160144 0.062368 -0.110128 0.290958 0.143339 -0.254366 -0.272281 0.042336 0.074921 0.165804 0.161923 0.768357 0.605027 -0.607905 0.046630 0.361257 0.741064 0.221921 0.312139 0.316890 -0.222614 0.049668
ytd-video-meta-block 0.156017 0.292294 0.213619 -0.276556 0.324041 0.815857 0.229208 0.115001 -0.051204 0.979997 0.339476 0.078691 0.089837 0.003566 0.184652 -0.011629 -0.063561 -0.049822 0.363213 0.262597 -0.462025 0.447843 0.340373 -0.010621 -0.225300 0.072985 -0.256371 0.054415 0.636748 0.404140 0.705836 -0.297107 0.149883 0.423344 -0.264141 0.126464 -0.024439 0.626021 0.509492 0.014967 0.578759 -0.598031 0.310552 -0.447957 0.493787 -0.246908 0.034103 -0.109331 -0.239339 0.580222
mrow 0.674423 -0.336954 0.138492 1.075123 0.124458 -0.271450 -0.545863 0.421421 0.453700 -0.081541 -0.672051 -0.455429 -1.005788 -0.264029 0.219802 0.267639 -0.842051 0.331361 0.420985 -0.885298 0.028329 0.318794 0.454084 -0.118046 -0.262098 0.015372 0.567089 0.245319 0.560036 0.537409 -0.191352 0.563908 0.111275 -0.459268 0.272538 -0.363747 -0.448882 0.557776 -1.092846 0.471668 0.547220 -0.477380 -0.856635 0.041589 0.405368 -0.013917 0.800355 0.261478 -0.104615 -0.119550
g-text-field 0.143795 0.285176 0.115850 -0.596212 0.533081 -0.244649 -0.172498 0.459179 0.187588 0.155142 -0.377855 0.528788 0.384704 -0.229391 0.760094 0.659984 -0.078819 0.577102 -0.033873 0.657476 0.019427 -0.285768 -0.071402 0.288916 0.244809 -0.480179 -0.360452 -0.179930 0.336275 0.601647 0.343162 -0.152648 0.319759 0.184797 -0.141715 0.142093 1.016576 -0.002431 0.584633 -0.585324 0.448689 0.551400 -0.030464 -0.391201 -0.516604 -0.582454 0.473085 -0.455758 0.008208 0.004979
femergenode 1.082667 -0.021446 0.122151 0.754094 -0.038179 0.226470 -0.346265 0.272243 0.113487 0.773077 0.540423 -0.017894 -0.772335 -0.199281 -0.236058 0.068739 -1.043507 0.163630 0.714704 -0.547938 0.145107 0.616798 -0.345931 -0.248972 -0.096573 0.481431 0.403933 0.494617 0.382502 0.537275 0.520872 0.325470 -0.102204 0.073391 -0.070039 -0.387082 -0.457579 0.791477 -1.381013 0.557769 0.158287 -0.259648 -0.211485 0.167457 0.046112 0.126260 -0.399700 -0.031325 -0.648657 0.431533
g-left-button 0.868245 0.410054 0.179422 0.473253 -0.193100 -0.213467 0.453819 0.170360 -1.137194 -0.370172 -0.227730 -0.264884 0.025105 0.223577 -0.283692 0.129740 0.363588 0.863974 -0.472891 -1.031004 0.718506 0.085801 0.295502 0.396087 -0.382823 0.155224 0.081613 0.167267 -0.183227 -0.024588 -0.807634 -0.495452 -0.424061 -0.310303 0.311508 0.115000 -0.470990 0.671252 -0.271312 1.311912 -0.977375 -0.263042 0.339593 0.640896 0.103343 0.911869 -0.645614 0.577956 -1.052860 0.738929
g-right-button 1.082176 0.411826 0.319734 0.432217 -0.198771 -0.119220 0.387945 0.333499 -1.026479 -0.616343 -0.128299 -0.283011 0.004656 0.333436 -0.347026 -0.194756 0.239631 0.711741 -0.590195 -0.979142 0.800953 0.279344 0.272404 0.581020 -0.260254 0.164372 0.024551 -0.031786 -0.121356 0.199553 -1.018349 -0.445042 -0.379020 -0.233619 0.233734 0.162510 -0.575061 0.539343 -0.255472 1.258294 -0.983801 -0.185623 0.022399 0.573262 -0.025797 0.980104 -0.643902 0.744492 -0.927478 0.594141
g-scrolling-carousel 0.470782 0.471453 0.108962 0.538986 0.312202 -0.239172 -0.223747 0.512042 -0.791922 -0.074751 0.141372 0.085461 0.334882 -0.499769 0.566877 0.457902 -0.423014 0.845692 -0.152894 0.244811 0.299261 -0.246941 0.545803 0.107736 -0.253240 -0.277545 0.003069 0.564195 0.601382 0.114895 0.090980 -0.244739 0.161051 0.086405 0.197548 -0.183101 0.469041 0.529009 0.023542 0.290492 0.752588 -0.555147 0.617025 0.409473 0.190401 0.075432 0.568513 0.183359 -0.232970 0.186004
ytd-compact-video-renderer 0.297731 0.372322 0.393887 0.728160 0.302369 -0.403991 0.227375 0.412956 -0.252051 -0.205258 0.050329 0.576151 -0.592477 -0.177367 0.262094 -0.150619 0.019280 -0.145018 -0.159460 0.681966 -0.179799 0.153020 0.241001 0.158213 -0.071448 0.636822 -0.594079 0.134421 0.561875 0.087063 0.250231 0.370609 0.208543 -0.031846 -0.392312 -0.245052 -0.082588 0.060748 -0.219595 0.333491 0.454449 -0.335706 0.363126 0.216464 0.884730 0.570682 -0.047192 0.230454 -0.103939 -0.384296
amp-img 0.901101 0.460155 0.317732 0.525042 0.254597 -1.016075 -0.024652 0.142207 -0.354733 -0.233762 -0.736550 0.308512 -0.267322 0.084835 0.328389 0.679802 -0.051377 0.570812 -0.563593 0.105714 0.158024 -0.170900 0.185182 -0.277949 0.226548 -0.079281 -0.187624 -0.413713 -0.015547 0.156554 0.493067 -0.028404 -0.149653 -0.228970 0.274219 -0.153417 0.211387 0.651747 -0.422149 0.390161 0.024714 0.301890 -0.166016 0.243825 0.225914 0.350704 0.212353 0.217273 -0.767926 0.383000
amp-pixel 1.222223 -0.047370 -0.116695 1.019639 0.274116 -0.444201 0.250919 0.183008 1.384117 0.690114 0.883466 -0.315116 -0.847768 -0.181103 0.621375 1.413291 -0.068204 -0.106264 0.995066 -0.750473 -0.309488 -0.016504 -0.687388 0.167209 -0.570935 0.848771 0.167373 -0.084179 0.043826 1.129339 0.108315 0.217396 0.297892 -0.246258 -0.098138 -0.486977 0.248781 0.807479 -0.253680 -0.353171 0.146951 -0.777555 -0.257557 0.771335 -0.571454 0.263558 0.779687 0.521976 0.557701 -0.016613
amp-video 0.040869 0.048587 -0.025397 -0.171333 0.166314 -0.093660 -0.037312 -0.095517 0.096440 0.194875 -0.464199 0.186540 -0.386973 0.158949 0.039917 0.091103 -0.377631 -0.109466 -0.200052 0.305932 0.303033 -0.166685 -0.042939 0.219924 0.312396 -0.072301 0.002615 -0.364395 0.313129 0.211647 0.471036 0.146487 -0.444629 0.039818 0.210819 0.291137 0.089080 0.231294 -0.367535 0.143841 0.437970 0.319616 -0.044173 -0.044678 -0.234114 0.178168 0.229224 0.104801 -0.013145 0.338778
menuitem 0.480121 0.679249 -0.510042 0.938876 -0.004670 0.446806 0.195135 -0.021250 0.299482 0.381930 -0.093067 0.132232 -0.647712 -0.615034 0.173968 0.505012 -0.334827 -0.269562 0.527105 0.084710 -0.012317 -0.248693 -0.352826 0.118331 -0.444070 0.669305 -0.033188 -0.136065 0.805535 0.412006 0.414652 0.230719 -0.211090 0.614328 0.026177 -0.426622 -0.034840 -0.066912 -0.617987 0.430179 0.451076 0.065493 0.247021 0.499388 -0.279734 0.598718 -0.200330 0.059637 0.270011 -0.272011
mi 0.541802 -0.259886 0.551667 0.751006 0.106191 -0.161892 -0.515388 0.285606 0.555237 0.039285 -0.942869 -0.260467 -1.081759 -0.196126 0.179630 0.000317 -0.778743 0.186044 0.101446 -0.902466 -0.098864 0.304035 0.533341 -0.193540 -0.221286 0.367449 0.605353 0.142473 0.250757 0.439989 -0.076133 0.566700 0.126119 -0.697205 0.290469 -0.366525 -0.765774 0.468926 -1.092056 0.519285 0.281929 -0.652519 -0.714543 0.266568 0.643900 0.273168 0.675529 0.584496 -0.413028 0.141913
s 0.176519 -0.023399 -0.638770 -0.392383 0.413835 0.398455 1.234011 -0.604691 0.867354 1.197786 0.648557 -0.307216 -0.140589 -0.130516 0.597375 0.867197 0.464066 0.516201 0.641048 -0.642229 0.366178 -0.609112 0.041862 0.042898 -1.364251 -0.431133 0.189173 -0.381605 0.396181 0.415912 0.691362 -0.054163 0.105890 0.281235 0.479180 -0.767648 0.785481 0.746096 0.048924 -0.006660 -1.048331 -0.532442 0.767497 0.448137 -0.472979 0.737121 -0.072114 -0.588563 -0.397900 -0.138688
mo 0.638101 -0.188484 0.590714 0.323397 0.048545 -0.054747 -0.417427 0.266605 -0.066703 0.085268 -1.204272 -0.177735 -0.882488 0.165486 -0.186281 0.039731 -0.945882 0.300520 -0.180565 -0.874670 0.158217 0.285832 0.283996 -0.040867 0.083935 0.430842 0.390674 -0.015061 0.157936 0.256949 -0.181861 0.525819 -0.323159 -0.535827 0.372390 -0.035650 -0.888794 0.430214 -1.365273 0.862540 -0.073564 0.009060 -0.720377 -0.217056 0.465400 0.372123 -0.042064 0.402952 -0.821493 0.709941
pattern 0.301325 -0.766277 -1.013162 0.294410 0.227031 -0.648832 -0.586961 -0.116967 -0.307960 -0.976454 -0.475661 -0.288407 -0.611070 0.090937 0.167436 0.082979 -1.184103 -0.946324 0.123532 0.278638 0.649916 0.310789 0.093966 -0.359227 0.420444 -0.407641 -0.096268 -0.129017 1.213436 0.037599 0.551254 0.279040 -0.418370 0.488586 0.511364 -0.453438 0.168420 0.329366 -1.209246 0.151897 0.572059 0.347252 -0.493699 -0.374016 -0.339724 0.327172 1.021766 0.313489 0.673008 -0.545125
animate -0.715107 -0.533689 0.131085 -1.091506 -0.077504 -0.721398 0.527037 -0.162272 -0.113327 -0.071532 -0.428027 0.409128 -0.482818 0.398266 -0.910785 -0.680165 -0.367318 -0.876618 -0.217833 0.710009 0.461960 -0.132901 -0.173469 0.266893 0.618714 0.504214 0.078821 -0.478920 -0.214836 -0.290469 0.203124 0.407179 -0.418188 -0.421115 0.309105 0.007918 -0.319109 -0.301514 -0.621046 0.703379 -0.288161 0.031737 0.242819 0.374716 -0.359845 0.563841 -0.268788 0.339224 -0.295343 -0.053550
g-review-stars -0.847910 0.493112 -0.621443 -0.275468 0.238829 0.190730 -0.217056 -1.130616 0.024986 0.861040 -0.252049 0.182131 0.153993 -0.234777 0.483223 0.154848 -0.102567 -0.125151 -0.014616 0.154530 -0.405540 0.062849 -0.032846 -0.636587 -0.036489 -0.290433 0.198794 -0.061663 0.049936 -0.161687 1.038453 -0.561873 -0.461692 0.403850 0.609064 -0.067396 -0.098009 -0.080270 -0.317167 -0.120973 0.311902 0.502936 0.494166 -0.222327 0.186154 -0.210056 0.129010 -0.179004 -0.379197 0.426245
lineargradient 0.469817 -0.393491 -0.568891 1.293861 -0.028666 0.256444 -0.405711 -0.044848 -0.764780 -0.037035 -0.883525 -0.278070 -0.787645 0.012867 -0.130702 0.751530 -0.610732 -0.320936 0.248510 -0.387701 -0.001836 0.452819 -0.274115 -0.368928 -0.297745 0.077344 -0.383771 0.776086 0.762957 -0.492828 0.067718 0.663362 -0.303167 0.049929 -0.133423 -0.312465 -0.287403 -0.153631 -1.503369 0.774931 0.015292 0.908931 -0.000281 -0.723336 0.817623 0.379628 -0.049880 -0.088055 0.064890 0.355785
g-inner-card -0.060916 0.559852 0.431308 0.418187 0.084789 -0.483480 -0.005280 0.064856 0.019017 0.772193 0.023671 0.112310 -0.583267 -0.514238 0.743769 0.558906 -0.181108 0.632816 0.324626 0.049336 0.228180 -0.193707 0.616230 -0.117771 -0.315313 -0.294866 0.446313 -0.128021 0.109303 0.449613 0.784094 -0.318420 -0.072154 0.007471 0.130350 -0.198017 0.374552 0.932807 0.195610 -0.065596 0.402231 -0.263113 0.308211 0.626478 -0.484884 -0.002463 0.202973 0.067608 -0.445898 0.111194
yt-icon-button 0.121150 0.460271 -0.315696 0.882225 0.431511 0.296762 0.702000 0.328007 0.057021 0.212830 0.084375 -0.298244 -0.305918 -0.075654 -0.019657 1.321864 0.140094 0.347340 0.199098 -0.081591 0.369070 -0.644768 -0.603409 0.809390 -0.502612 0.113075 -0.559729 0.295774 0.396647 -0.066402 -0.674082 0.630659 0.051270 -0.300017 0.201741 0.648653 -0.226418 -0.872720 -0.317883 0.338798 0.135613 0.358554 0.320527 0.235927 0.059894 0.806005 0.358355 0.051326 0.888134 0.176996
filter 1.465787 -0.469765 0.384891 -0.100138 -0.180378 -0.234734 0.106152 -0.040371 -0.267498 -0.114372 0.108906 -0.390986 -0.433297 0.611251 -0.878025 0.407740 -1.202990 -0.278942 -0.157860 -0.413188 0.576291 -0.060762 -0.407148 0.014902 0.383536 0.514014 0.173990 -0.708847 0.045126 0.121799 0.167259 0.270634 -0.842960 -0.060945 0.330335 -0.137570 -0.263089 0.783197 -1.243547 0.594277 -0.572317 -0.236011 -0.517465 0.547950 -0.915623 0.791762 -0.404262 0.764079 -0.438974 0.675213
fecomposite 1.128248 0.096827 0.287745 0.506148 0.022761 0.002216 -0.297933 0.250621 0.582632 0.628950 0.378076 -0.106644 -0.749545 0.106497 -0.054672 0.106533 -0.917863 0.041757 0.318058 -0.683893 0.209487 0.309860 -0.321145 0.080093 -0.013082 0.876485 0.547210 -0.153083 0.044296 0.831431 0.262097 0.216251 -0.195653 -0.041669 0.208869 -0.344364 -0.589852 0.756774 -1.164579 0.331586 -0.100562 -0.355680 -0.410555 0.291798 -0.132892 0.554303 -0.228588 0.360084 -0.505670 0.448714
feflood 1.099263 0.041686 0.335876 0.285601 -0.034219 -0.084156 -0.134419 0.094598 0.540886 0.428473 0.233459 -0.154649 -0.784046 0.345754 -0.132147 0.227779 -0.864742 -0.034805 0.131696 -0.751322 0.248813 0.167167 -0.288552 0.165776 0.078837 0.925875 0.572252 -0.348663 -0.046756 0.710060 0.082940 0.149178 -0.370051 -0.067231 0.272888 -0.175730 -0.598502 0.714823 -1.075054 0.330258 -0.265218 -0.360515 -0.437482 0.368091 -0.274315 0.646742 -0.229975 0.505706 -0.394215 0.481449
fegaussianblur 1.158436 -0.280646 0.428159 -0.166614 -0.041255 -0.069599 0.161779 -0.003271 0.188974 0.099955 0.012194 -0.335358 -0.544210 0.619675 -0.629569 0.628424 -0.957078 -0.173812 -0.178861 -0.575918 0.369572 -0.254396 -0.386956 0.305734 0.223913 0.719741 0.324729 -0.636934 -0.069136 0.292471 -0.151871 0.263159 -0.627269 -0.194615 0.398503 0.215478 -0.414927 0.498611 -0.965159 0.562575 -0.426867 -0.296750 -0.507373 0.461514 -0.727834 0.786132 -0.193847 0.708794 -0.146569 0.671132
femerge 1.149471 0.100624 0.266516 0.634126 -0.018265 0.177360 -0.355096 0.321785 0.453072 0.743619 0.422900 -0.063515 -0.741852 -0.032353 -0.126448 -0.004827 -0.988202 0.088787 0.542180 -0.623852 0.142187 0.510528 -0.319213 -0.037820 -0.048300 0.763113 0.528893 0.143492 0.157793 0.781118 0.323712 0.280738 -0.095592 0.008635 0.044149 -0.391938 -0.595188 0.768858 -1.258721 0.415262 -0.002963 -0.353342 -0.402583 0.165488 0.018747 0.380160 -0.346120 0.203328 -0.601201 0.425841
feoffset 1.100738 -0.148232 0.416024 -0.037460 0.010425 -0.086964 0.075483 0.083067 0.415829 0.292740 0.090027 -0.254341 -0.631932 0.484068 -0.390303 0.529473 -0.878041 -0.099842 -0.038405 -0.614757 0.306683 -0.126605 -0.352382 0.356505 0.128398 0.826461 0.404239 -0.557029 -0.027746 0.501272 -0.084432 0.194737 -0.486818 -0.186419 0.355558 0.114055 -0.456423 0.534397 -0.919786 0.481380 -0.352431 -0.339414 -0.459999 0.446262 -0.578004 0.727293 -0.117212 0.649525 -0.162431 0.605674
wp-ad -0.402078 0.452844 -0.198823 -0.594291 0.281587 -0.355526 -0.056604 -0.180810 -0.319907 -0.285595 -0.619618 0.618756 0.019424 -0.201643 0.178892 0.002414 -1.030267 0.188542 -0.449352 0.404050 0.776129 -0.344444 -0.450868 0.101105 0.408046 0.190721 -0.058672 -0.102442 0.451995 -0.217396 -0.195453 0.257629 -0.440278 -0.092251 0.787840 0.358101 -0.090996 -0.356726 -0.886039 0.330749 -0.079371 0.396586 0.117896 0.345289 -0.082178 0.161908 0.316941 -0.027957 -0.254208 0.086839
tspan 0.505513 0.586709 -0.178655 1.424622 0.104310 -0.031630 -0.306530 0.471888 0.830355 0.844311 -0.223435 -0.249386 -1.536029 -0.052507 0.572039 0.806115 -0.592745 0.513626 0.496077 -0.937180 0.193848 -0.044344 0.066258 0.042191 -0.464187 0.963673 0.639250 0.251180 0.644491 0.964148 0.156106 0.663818 0.053349 0.010941 0.731638 -0.075016 -0.703890 0.492198 -1.378702 0.486054 0.851230 -0.261614 -0.360425 -0.145458 0.716876 0.505183 0.059980 -0.096749 -0.159933 0.155652
paper-tooltip 0.015077 0.498501 -0.136909 0.623324 0.116108 0.302419 0.564941 0.496890 -0.696451 -0.057586 -0.291742 -0.249878 -0.294695 -0.205532 -0.465032 0.331467 -0.031898 0.289437 0.121404 0.101848 0.300413 -0.383981 0.182939 0.153664 -0.258471 0.151127 -0.694944 0.156509 0.804750 -0.333865 0.028341 0.678653 -0.299942 -0.179534 0.540854 0.439065 -0.226080 -0.443483 -0.555066 0.657886 0.442677 -0.212595 0.173034 0.432869 0.062507 0.692362 -0.157716 0.191510 0.096797 0.241137
animatetransform -0.186450 -0.005412 -0.934776 1.434435 -0.042978 -0.086092 -0.426661 -0.282172 -0.551113 1.351360 -0.044769 -0.121987 -1.033872 -0.437074 0.195359 0.498855 -0.450693 0.149186 0.912883 -0.620098 0.277401 0.576358 -0.123853 -0.175309 -0.676941 0.103788 0.109294 0.589759 0.661210 0.093412 0.629128 0.319025 -0.317398 0.247998 -0.287080 -0.664029 -0.139151 0.476437 -1.280239 0.549155 0.013697 0.803512 0.558641 -0.747230 0.501047 0.255452 -0.461859 -0.699258 -0.245266 0.513540
g-link -0.128823 0.650229 0.725865 0.527600 -0.099455 -0.583273 -0.120491 0.048884 0.017318 0.638372 -0.176246 0.159253 -0.642988 -0.525239 0.691725 0.677113 -0.377479 0.730739 -0.109236 0.069082 0.244967 -0.629361 0.596106 -0.389028 -0.245094 -0.078931 0.574298 -0.062659 -0.112066 0.088178 0.890564 -0.098331 -0.289838 -0.085792 0.385986 -0.131493 0.283019 0.716393 -0.098332 -0.050255 0.431626 -0.313991 0.482853 1.120214 -0.341223 0.263384 0.073465 0.251959 -0.560441 0.096551
math 0.480718 -0.484454 0.155891 0.835234 0.116090 -0.155612 -0.478087 0.289515 0.480282 -0.437062 -0.532494 -0.525191 -0.583393 -0.272504 0.045286 -0.034840 -0.390042 0.254777 0.428326 -0.792303 -0.209916 0.412738 0.624684 -0.288690 -0.246857 -0.268451 0.504631 0.261855 0.456794 0.367605 -0.366247 0.334689 0.431013 -0.581497 0.226106 -0.372711 -0.444676 0.401335 -0.545913 0.368123 0.536878 -0.767627 -0.934716 0.187454 0.506810 -0.299751 0.993521 0.314059 -0.023203 -0.261840
annotation 0.440876 -0.334302 0.398182 0.519453 0.037657 -0.323158 -0.430363 0.439013 0.408608 -0.256072 -0.945564 -0.251596 -0.867236 -0.258165 0.308854 -0.238012 -0.428485 0.077828 0.090964 -0.629339 -0.231931 0.366570 0.751291 -0.286082 -0.108061 0.127560 0.411379 0.141132 0.368101 0.476751 0.121087 0.414720 0.220967 -0.534753 0.125696 -0.469028 -0.329234 0.483263 -0.515684 0.237479 0.361780 -0.631758 -0.644475 0.157006 0.595779 -0.067078 0.679794 0.442566 -0.350660 -0.039504
semantics 0.438810 -0.426272 0.111909 0.859428 0.093205 -0.184832 -0.486241 0.347873 0.424334 -0.502423 -0.569927 -0.502381 -0.550569 -0.308953 0.054243 -0.105536 -0.424107 0.258223 0.380453 -0.688642 -0.166769 0.440245 0.627417 -0.281689 -0.206588 -0.314402 0.435754 0.252355 0.517730 0.378202 -0.359541 0.375807 0.372424 -0.493005 0.166735 -0.367689 -0.341664 0.380559 -0.531473 0.320090 0.656973 -0.671820 -0.936446 0.153809 0.469879 -0.390872 0.999460 0.249076 0.022639 -0.345521
menu -0.221811 0.740823 -0.584967 0.876863 0.052189 -0.077629 0.358996 -0.436146 0.309532 0.560299 -0.399140 0.077394 -0.766553 -0.676575 0.198692 1.020266 -0.122213 -0.367638 0.697728 0.207096 -0.014492 -0.534437 -0.153277 -0.173772 -0.398937 0.496035 -0.228111 -0.424048 0.668896 0.038404 0.847649 0.325946 -0.493451 0.313346 0.485177 -0.107505 0.095778 0.032751 -0.430946 0.197717 0.565855 0.051736 0.108191 0.599576 -0.783343 0.490025 0.141187 0.193202 0.509193 -0.125082
mstyle 0.691137 -0.486366 0.213156 0.897487 0.072799 -0.240258 -0.514829 0.574503 0.443897 -0.508243 -0.669737 -0.467567 -0.734062 -0.180182 0.085147 -0.117605 -0.511945 0.182065 0.258611 -0.603083 -0.168988 0.502057 0.654805 -0.170489 -0.106857 -0.081420 0.432672 0.284157 0.653658 0.487815 -0.198030 0.442194 0.309399 -0.411632 0.094359 -0.465279 -0.369022 0.437160 -0.621888 0.407490 0.705940 -0.685502 -0.870556 0.054728 0.614474 -0.207915 0.886650 0.371832 -0.062152 -0.297235
optgroup 0.850677 0.846946 -0.187300 0.946935 0.272708 0.364487 0.085546 -0.322025 -0.159471 -0.026365 -0.221399 -0.126704 -0.618017 -0.183357 0.926461 1.424411 -0.204461 0.856855 0.340555 -0.967543 0.265163 -0.235516 0.024757 -0.141419 -0.431317 -0.064565 -0.495466 -0.371313 0.742716 0.596439 0.139364 0.048165 -0.279092 0.527259 0.199004 0.231430 0.413809 0.545983 -0.617334 -0.001769 -0.453408 0.514809 -0.770882 0.115365 -0.804422 0.333694 -0.140803 -0.373602 -0.170416 0.637509
g-loading-icon 0.080269 -0.326174 0.322540 -0.127392 -0.025950 -1.144315 -0.315044 0.632607 0.087617 0.251248 -1.081373 0.235800 -0.851545 -0.397698 0.616638 0.053262 -0.050869 0.429162 -0.023611 -0.171374 0.027555 0.083406 0.419218 -0.391065 0.178757 -0.000562 0.004456 -0.167887 0.287562 0.582487 1.011847 0.364147 0.084416 -0.437792 0.250507 -0.465816 0.612667 0.617192 -0.232426 -0.134559 0.563401 -0.027926 0.046494 0.340301 0.011642 -0.448005 0.439352 -0.016799 -0.869943 0.337141
ts-message 0.784015 0.078627 -0.221485 -0.126790 0.135035 0.035933 0.583328 0.004980 -0.015782 0.173663 0.344185 -0.327876 0.174606 0.083352 0.014683 0.384765 0.406096 0.036468 0.413641 -0.650031 0.012794 0.318672 -0.211957 0.158420 -0.301180 0.194661 -0.196615 -0.173997 -0.042779 0.601738 -0.068334 -0.385026 -0.057682 0.012964 0.095091 -0.223307 0.133521 0.611225 0.306628 0.209783 -0.460556 -0.381037 -0.047204 0.209253 -0.508416 0.125521 -0.079611 0.237112 -0.362072 0.561935
mn 0.456735 -0.185678 0.430476 0.854601 -0.088137 0.031352 -0.256726 -0.109862 0.482722 0.596397 -0.817203 -0.617768 -1.112092 0.100103 -0.056066 0.647660 -0.609879 0.210774 0.175581 -1.145694 -0.106208 -0.046999 0.192633 -0.263409 -0.315793 0.329574 0.519400 -0.253332 -0.006181 0.361693 0.230966 0.425107 -0.484524 -0.511340 0.405680 -0.012891 -0.826134 0.525459 -1.203074 0.596207 0.154514 -0.137269 -0.652009 0.270767 -0.003058 0.438922 0.121855 0.590737 -0.310356 0.583142
caption -0.423635 0.472597 0.420351 -0.400019 0.195571 0.137977 -0.462756 -0.095789 -0.409350 0.537090 -0.653529 0.734776 0.124561 0.096246 -0.305655 -0.809446 -0.421759 -0.038287 -0.473647 0.643508 -0.342248 0.523869 0.213865 0.078666 0.244403 0.518778 0.365530 0.220178 -0.231710 -0.027753 0.165357 -0.604021 0.044716 -0.149573 -0.126731 -0.127714 -1.094627 0.014198 -0.555801 1.030438 0.465754 0.157640 0.539802 -0.468066 1.098777 0.263974 -0.418678 0.482783 -1.065982 0.448364
date 0.151886 0.016009 -0.912381 0.823917 0.127232 -0.497657 0.117669 -0.597021 1.004464 1.957916 1.078192 0.059893 -0.847330 -0.196942 0.741868 0.652668 0.207438 -0.325554 0.810531 -0.848958 -0.329865 0.036389 -0.858050 -0.078637 -0.750490 0.957762 0.804948 0.310616 -0.593994 0.813217 0.932136 -0.320138 -0.250536 0.063261 -0.256880 -0.877437 0.101474 0.851819 -0.628827 -0.252568 -0.379303 -0.013487 1.128336 0.293795 0.216622 0.605188 -0.210258 -0.169609 -0.233201 0.411813
param 0.609728 0.075700 -0.253076 0.442191 -0.271125 0.406873 0.131549 0.017082 -0.165703 0.857157 -0.521699 -0.750736 -0.526166 0.138326 -0.152078 0.876903 -0.478036 0.405037 0.478384 -0.740359 0.416970 -0.138367 0.139238 -0.439508 -0.139251 -0.428942 0.150865 -0.398026 0.778733 0.259406 0.832227 0.211526 -0.691865 0.233701 0.675070 0.188324 -0.028024 0.624913 -0.921582 0.418636 0.200956 0.329584 -0.214379 -0.079170 -0.195719 0.299237 -0.280310 -0.188228 -0.380666 0.775364
paper-button 0.791055 0.263354 0.278958 -0.126578 0.219152 0.029634 0.373863 0.035773 -0.068998 0.820343 -0.151146 -0.226687 0.205119 0.187786 0.220121 0.958200 0.163233 0.582845 0.247311 -0.633625 0.065501 0.248181 -0.116818 0.217940 -0.263992 -0.235997 -0.027384 -0.431893 -0.207249 0.578441 0.085750 -0.614797 -0.036375 -0.023228 -0.203864 -0.018385 0.220426 0.820380 0.253291 0.275180 -0.800333 0.385706 -0.009801 -0.244286 -0.505333 -0.004398 -0.107966 -0.049247 -0.720664 1.096315
g-fab 0.485068 0.044558 0.122288 0.599023 -0.221373 0.185138 0.342490 -0.198619 -0.533397 0.079945 -0.476811 -0.600207 -0.673537 0.399288 -0.443281 0.498677 0.046267 0.229537 -0.182801 -0.823146 0.250317 -0.006177 0.382484 0.102516 -0.248542 0.104103 0.155260 -0.007329 0.173800 -0.170147 -0.239304 -0.011091 -0.665583 -0.145812 0.307973 0.426267 -0.549129 0.402193 -0.482647 0.967514 -0.256528 -0.179023 -0.014651 0.322786 0.146154 0.700931 -0.388439 0.561149 -0.335203 0.615144
ng-include -0.036555 -0.106370 -0.432301 0.460920 0.001079 0.025280 0.055167 -0.094927 -0.634496 0.244713 -0.112703 -0.652784 -0.448900 -0.319182 -0.238312 0.718537 -0.510358 -0.245861 0.489235 -0.501800 0.208178 -0.188027 0.241294 -0.242332 -0.189697 -0.080990 -0.194830 0.263887 0.322538 -0.221878 0.733473 0.355456 -0.519536 0.101851 0.613676 0.117381 -0.024326 0.375757 -0.614366 0.331011 0.688175 -0.203959 0.004459 0.129626 -0.510357 0.114844 0.144280 0.220692 0.217162 0.691028
object 0.101807 0.966107 0.280549 0.669096 -0.328320 -0.646108 0.253102 0.022577 -0.174117 0.408354 -0.648319 0.066790 -0.716631 -0.332214 0.620223 0.555612 -0.127714 0.482171 0.190358 -0.294082 0.438479 -0.098707 0.086869 -0.268928 -0.112283 0.099511 0.056147 -0.588983 0.149461 0.315528 0.701090 0.047292 -0.572192 -0.027806 0.203847 -0.393442 0.129518 0.543203 -0.692913 0.047440 -0.403369 0.605849 0.182537 0.656898 -0.152032 0.487249 -0.220286 -0.035963 -0.695780 0.332006
ytd-toggle-button-renderer 0.556108 0.136860 0.035243 0.655339 0.244519 0.122338 0.363245 0.071331 0.176786 0.434483 -0.241671 -0.474651 -0.349259 0.002062 0.102577 1.142774 0.122754 0.444796 0.070643 -0.716414 -0.053816 -0.400860 -0.267416 0.383026 -0.479681 0.174064 -0.045514 0.076101 -0.099216 0.221264 -0.313387 0.173427 -0.224909 -0.443259 0.092587 0.239545 -0.127079 -0.091943 -0.254100 0.380889 -0.241282 0.169880 0.135539 0.372121 -0.045779 0.602444 0.177247 0.328512 0.129664 0.657662
date-range -0.293749 0.761559 -0.400109 0.183717 -0.056953 -0.553738 0.466707 -0.921860 -0.634171 0.522490 0.041370 0.016876 -0.090122 -0.565323 0.276748 0.243850 0.338860 -0.203995 0.290157 -0.532551 -0.040518 0.189723 -0.147108 -0.604538 -0.383397 0.198838 -0.036527 -0.185070 -0.494040 -0.012703 0.595937 -0.312489 -0.253087 -0.254681 0.646654 -0.363705 -0.112000 0.504817 -0.120917 0.098302 -0.318562 -0.189865 0.527993 0.826807 -0.143602 0.268912 -0.129011 0.243281 -0.620161 0.994121
image-viewer-group 0.939228 0.047298 -0.015590 0.640510 0.102202 -0.554264 -0.056925 0.876106 -0.115065 -0.634469 -0.141743 0.117625 -0.385027 -0.039793 0.336870 -0.127684 -0.384855 0.284868 -0.052255 0.204208 0.428335 0.235372 0.264356 0.323520 0.015503 0.174563 -0.018470 0.175907 0.925997 0.582313 -0.238332 0.176387 0.245576 0.153635 -0.045238 -0.466686 0.151293 0.354137 -0.429032 0.431252 0.460826 -0.340810 -0.147977 0.173481 0.320377 0.236809 0.424635 0.168909 -0.140620 -0.547496
string -0.174761 0.003638 -0.529215 0.659055 -0.199739 0.513306 0.050250 -0.654549 -0.150910 0.624422 0.087103 -0.540376 -0.515258 0.335707 -0.407549 0.094367 -0.370452 -0.110571 0.309407 -0.894869 0.247204 0.064886 0.061791 -0.260982 -0.385947 0.179753 0.503597 0.035104 0.057064 -0.214270 -0.040896 0.113209 -0.572666 0.188033 0.256599 0.108980 -0.743114 0.162989 -1.002305 0.499199 -0.394487 0.255682 0.068563 -0.329091 0.232290 0.636692 -0.643011 -0.098939 -0.085604 0.372334
description 0.604645 -0.006670 0.247502 0.042210 0.182948 0.201191 0.026480 -0.167958 0.295633 0.941923 0.113123 -0.338013 -0.633730 0.566789 0.062996 1.504553 -0.563639 0.164901 0.078272 -0.590530 0.135835 -0.439151 -0.261538 0.252748 0.045088 0.223667 0.092381 -0.300414 -0.250010 0.227641 0.485725 0.168580 -0.663142 0.096809 0.165118 0.508903 0.063526 0.326060 -0.452645 -0.207249 -0.392100 0.631974 -0.363636 -0.353700 -0.837766 0.401052 -0.287643 0.000304 0.099418 0.858578
tfoot 1.043231 -0.052408 0.007745 -0.351530 0.093941 1.008689 0.294355 -0.334323 0.131792 0.666723 -0.081725 -0.022740 -0.078757 0.293754 -0.134131 -0.173009 0.102223 -0.074453 -0.593652 -0.196019 -0.327943 0.125254 -0.215782 -0.345920 -0.096315 -0.096755 0.013625 -0.353581 0.175556 0.074180 0.790842 0.096576 -0.310727 0.525186 -0.127549 -0.155005 0.288022 0.123500 -0.383491 0.109388 -0.595778 0.154130 0.141945 0.013389 0.825330 0.371931 -0.643124 -0.331335 -0.826214 0.644783
ytd-button-renderer -0.090470 0.522199 -0.353742 0.645978 0.289433 0.150750 0.638802 0.340512 -0.047874 0.413914 0.174459 0.004110 -0.588781 0.089851 0.124574 0.939465 -0.089611 0.114168 0.305776 0.185439 0.610895 -0.215407 -0.571926 0.843701 -0.344983 0.213127 -0.524163 0.199163 0.617323 0.111137 -0.352238 0.460154 -0.002643 -0.012608 0.028438 0.518863 -0.270450 -0.508382 -0.345201 0.278679 0.178524 0.391997 0.464670 -0.024294 -0.066595 0.777701 0.165715 -0.022382 0.662863 0.135295
msub 0.673144 -0.347476 0.385427 0.762401 -0.002742 -0.143256 -0.518423 0.411704 0.328844 -0.033237 -0.749145 -0.357993 -0.861150 0.086462 -0.090705 0.101839 -0.693308 0.238470 0.011058 -0.646648 -0.077514 0.295960 0.364734 -0.076264 -0.026247 0.256846 0.488809 0.117731 0.358307 0.432277 -0.068980 0.390232 -0.101036 -0.328785 0.123152 -0.203386 -0.626928 0.424531 -0.991462 0.649978 0.472593 -0.215797 -0.663875 -0.027316 0.472343 0.181974 0.324830 0.428767 -0.298520 0.076259
q 0.170152 -0.425302 -0.002675 -0.197433 -0.134016 0.467700 0.394755 -0.326724 0.272706 1.425726 0.812480 -0.187377 -0.233353 0.288593 -0.353423 0.838780 -0.062489 0.488322 0.829602 -0.785656 0.064524 -0.371250 -0.338715 -0.274927 -0.395324 0.436565 0.537655 0.285719 -0.484870 -0.266664 0.500194 -0.101119 -0.126406 -0.131862 0.407847 0.030471 -0.319854 0.915960 -0.645820 0.447470 -0.485913 -0.611488 0.412194 0.236969 -0.153816 -0.043247 -0.528410 -0.380289 -0.728664 0.532089
g-more-link -0.290534 0.084053 0.081873 0.723685 -0.250447 -0.529064 -0.188020 -0.375630 0.612130 0.166743 -0.511281 -0.052077 -0.957780 -0.069157 0.346413 0.073394 -0.101123 0.009596 -0.048559 -0.345142 -0.176976 0.032051 0.222532 -0.282370 -0.186883 0.146909 0.749871 0.052858 -0.125929 0.087234 0.022813 0.009807 -0.185977 -0.184018 -0.047509 -0.231425 -0.289215 0.011498 -0.444369 0.117624 0.130549 0.095733 0.017496 0.449193 0.366709 0.220883 0.153645 0.179186 -0.032060 -0.427497
crumb 0.923406 0.020051 -0.121595 0.544280 0.163984 -0.438928 -0.118393 0.376920 -0.072452 0.215774 -0.826765 -0.158419 -1.257024 0.196873 0.135435 0.835265 -0.911376 0.269342 -0.016956 -0.563224 0.566256 -0.080208 -0.129703 0.065307 0.100805 0.529536 0.087856 -0.141932 0.699043 0.581202 0.593526 0.479802 -0.589189 -0.002905 0.763112 -0.039847 -0.185347 0.651230 -1.496893 0.829848 0.479820 0.263453 -0.252201 0.216651 -0.010899 0.572344 -0.009110 0.275051 -0.676776 0.628258
kno-share-button 0.436666 0.036923 -0.166579 0.074656 0.071021 -0.100884 0.242217 0.263371 -0.306991 -0.264016 -0.800091 -0.067504 -0.430878 0.150836 -0.017543 0.528489 -0.198669 0.328649 0.035729 -0.072072 0.385462 0.011653 0.282769 0.026539 0.074131 -0.213144 -0.312120 -0.126547 0.923958 0.115710 0.022845 0.138812 -0.350703 0.097216 0.344627 0.254049 0.104572 0.248417 -0.303246 0.490972 0.341814 0.095895 -0.265269 -0.102025 -0.005321 0.027563 0.245410 0.031721 -0.178488 0.179792
desc 0.862269 -0.540404 0.224877 0.347211 0.166529 -0.097684 -0.073637 0.185108 0.344519 -0.591983 -0.725991 -0.007946 -1.156729 0.813884 -0.034517 0.286191 -0.153038 0.161875 -0.322004 -0.511613 -0.174404 0.426846 0.420520 0.063258 0.101416 0.148887 0.521359 0.536805 0.421708 0.167005 -0.538986 -0.014650 0.026605 -0.063672 -0.270783 0.098315 -0.561039 0.257258 -0.575444 0.765767 0.178152 -0.096757 -0.331754 -0.447175 1.049371 0.212538 0.147914 0.333282 -0.235055 -0.513019
iron-media-query -0.016269 0.349413 -0.533758 -0.779421 0.364019 0.361344 0.441163 -0.256878 -0.058382 0.764487 -0.156865 -0.116842 -0.037983 0.173227 0.335729 0.849370 0.118299 0.168757 0.361078 -0.379951 0.036021 -0.097927 -0.170519 -0.042105 -0.096797 -0.148550 -0.277588 -0.356117 0.420803 0.541769 0.667410 -0.449497 -0.568604 0.367743 0.462114 0.579300 0.384411 0.448031 0.211199 -0.041635 0.239827 0.328167 0.168577 -0.267558 -0.699491 -0.215797 0.092852 -0.290015 -0.269418 0.985819
nf-section 1.031974 0.091968 0.123569 0.867814 0.119392 0.032225 -0.400482 0.604499 -0.197408 -0.044907 -0.676973 -0.237318 -0.512823 0.107357 0.069143 0.831629 -0.759417 0.772759 0.012735 -0.157826 0.391148 -0.181128 0.229280 -0.087490 0.120561 -0.357026 -0.116913 -0.185289 0.958803 0.370090 0.197307 0.503939 -0.209606 0.109738 0.425789 0.245662 -0.073970 0.262842 -0.921956 0.421044 0.517419 0.514001 -0.693306 -0.318887 0.086780 0.217455 0.150457 -0.125119 -0.187948 0.201740
mspace 1.203232 -0.389280 0.339805 0.000999 0.118653 -0.516522 -0.163838 0.936940 0.081130 -0.269311 -0.987485 -0.015193 -0.678910 0.335037 -0.115152 -0.136650 -0.352209 0.256694 -0.245811 -0.116468 -0.076277 0.383228 0.456865 -0.016338 0.326853 0.243596 0.032967 -0.124219 0.498329 0.794398 0.259112 0.124919 0.116319 -0.201679 -0.159115 -0.339652 -0.125517 0.706121 -0.445068 0.646934 0.342300 -0.199584 -0.446909 -0.105965 0.598465 -0.003502 0.119940 0.341807 -0.872127 0.276610
th-result-status-chicklet 0.506130 -0.271130 0.224118 0.235428 -0.144832 0.329587 -0.151305 -0.514269 0.442899 0.737130 -0.060863 -0.505175 -0.606548 0.347297 -0.285942 0.283057 -0.219268 -0.139075 0.075932 -1.259689 -0.439523 0.219127 -0.206607 -0.338400 -0.209752 0.710295 0.639438 0.056586 -0.679407 0.167015 0.250976 0.011424 -0.439461 -0.291518 0.213398 -0.035609 -0.871609 0.516700 -0.814552 0.479274 -0.394760 -0.271383 -0.198620 0.243537 0.213017 0.417172 -0.356913 0.512995 -0.567904 0.970459
address -0.459043 0.020750 -0.520060 -0.161598 0.200478 -0.025384 0.099761 -0.546925 0.533321 0.736721 0.447795 -0.130633 -0.630567 -0.185291 0.547798 -0.293456 -0.093596 -0.110277 0.006377 -0.319360 0.332287 0.017702 -0.046277 0.586997 -0.397400 -0.000534 0.945564 0.004554 -0.113962 0.745737 0.127884 -0.561426 -0.423647 0.400033 0.207359 -0.130666 0.047734 0.356948 -0.100741 0.172785 0.116967 -0.129968 0.511084 0.599590 -0.388127 0.152472 0.131784 0.094289 -0.118936 -0.275805
acronym 0.182832 -0.295380 -0.252404 0.751813 0.036913 0.126374 -0.173557 -0.470883 0.766901 0.968809 0.624146 -0.402884 -0.519766 -0.102400 0.123551 0.650775 -0.156805 -0.145534 0.539787 -0.870572 -0.472382 -0.127038 -0.480454 -0.142564 -0.487227 0.439323 0.687725 0.494091 -0.531301 0.176902 0.034477 0.158293 0.041891 -0.275027 -0.123273 -0.351208 -0.251838 0.227574 -0.578620 -0.061493 -0.091843 -0.343875 0.235262 0.259855 0.276140 0.210505 0.141801 0.051033 0.240236 0.198669
ytd-subscribe-button-renderer 0.729236 -0.056509 0.295195 -0.481126 0.289850 -0.303719 0.195844 0.011231 0.033395 0.819302 -0.709095 -0.122375 -0.100643 0.205549 0.193802 0.991826 -0.005643 0.599321 0.073939 -0.639449 0.099648 0.040755 0.051461 0.030635 -0.090210 -0.227154 0.075774 -0.642010 -0.197836 0.638274 0.487633 -0.540930 -0.304900 -0.206594 0.122020 -0.012431 0.310994 1.002028 0.014684 0.419757 -0.522479 0.412120 -0.142044 -0.116465 -0.699945 -0.028403 0.005374 0.128127 -1.018515 1.209322
assignment-widget 0.043251 -0.024095 -0.189899 0.199247 0.116611 0.027611 -0.124051 -0.137241 0.298699 0.660966 0.015721 -0.089314 -0.485913 -0.060592 0.157040 0.432014 -0.468815 -0.069927 0.209931 -0.286643 0.074600 -0.074169 -0.295335 0.129364 -0.148057 0.252040 0.363070 0.087045 0.044390 0.383332 0.239860 0.182135 -0.195546 0.032458 0.209343 0.015799 -0.171270 0.089949 -0.574010 0.112134 0.201997 0.147780 0.076808 0.052704 -0.043244 0.207553 0.079273 -0.018581 0.036396 0.342078
job-comments 0.016267 -0.218848 0.052249 -0.157552 -0.002547 -0.068364 -0.049314 -0.022900 0.584227 1.169049 0.471675 -0.246855 -0.426899 -0.242943 0.381835 0.520808 -0.101925 0.435419 0.505937 -0.622326 0.127178 -0.222326 -0.144589 -0.071343 -0.319320 -0.305047 0.670950 -0.047061 -0.327558 0.555499 0.613118 -0.086127 -0.019751 -0.112783 0.154348 0.000528 0.321938 0.612358 0.025869 -0.276548 0.024738 -0.110386 0.223626 0.489616 -0.498694 -0.295447 0.117988 -0.299086 -0.210755 0.322102
participant-list 0.039682 -0.032001 -0.183396 0.160363 0.097676 0.005102 -0.139943 -0.131122 0.372109 0.762381 0.074367 -0.081402 -0.521818 -0.066599 0.233772 0.416561 -0.439860 -0.040847 0.264322 -0.368768 0.066003 -0.037222 -0.269682 0.094577 -0.158764 0.260174 0.436209 0.099503 -0.016908 0.478593 0.320917 0.135996 -0.172173 0.038228 0.193358 -0.025712 -0.133814 0.197297 -0.534617 0.045424 0.185671 0.123559 0.090528 0.077612 -0.067427 0.152634 0.071924 -0.053060 -0.016745 0.351596
time-range -0.392911 0.130855 -0.328883 0.048352 0.080195 0.004735 -0.112228 -0.532296 0.205403 0.445243 0.184658 -0.019835 -0.049092 -0.162294 0.162932 0.178609 -0.038995 -0.258967 0.170290 -0.242711 -0.177078 0.005802 -0.423850 0.009141 -0.139073 0.144583 0.204129 0.125983 -0.405828 0.084777 0.030083 -0.015730 -0.082762 -0.033478 0.093190 0.004967 -0.097461 -0.278208 -0.165868 -0.182298 -0.044340 0.245454 0.201026 0.049839 -0.108563 0.029682 0.015340 -0.100029 0.222957 0.275367
ytd-thumbnail-overlay-time-status-renderer -0.193223 0.067195 -0.180701 -0.113549 -0.074561 -0.310472 0.132169 -0.142514 0.001629 0.395836 -0.970638 0.044350 -1.076163 0.299541 0.112945 0.405591 -0.144035 0.023801 -0.072870 -0.368325 0.231386 -0.055727 0.127385 -0.162281 0.076008 0.407815 0.160964 -0.188150 0.264902 0.143722 0.542425 0.191746 -0.659111 -0.055491 0.532524 0.205365 -0.226306 0.333651 -0.739013 0.373969 0.180370 0.235732 0.098953 -0.030212 0.148202 0.272110 -0.213622 0.097904 -0.526418 0.513205
ytd-topbar-logo-renderer 0.354753 0.106219 -0.007172 0.546792 -0.020196 0.241279 0.331365 0.230378 0.019594 0.180170 0.090753 -0.183949 -0.572349 0.076439 -0.174790 0.199647 -0.188172 -0.083887 0.152652 -0.254680 0.150394 0.056710 -0.177340 0.180895 -0.193843 0.533089 -0.065585 0.207225 0.342664 0.139242 -0.088239 0.376897 -0.212932 -0.081977 0.068249 0.126432 -0.468876 -0.001506 -0.573272 0.446494 0.126037 -0.285944 0.100392 0.321591 0.318383 0.564955 -0.130310 0.276933 0.002257 0.176965
ytd-topbar-menu-button-renderer 0.568309 -0.039346 0.205259 0.224710 0.284086 0.023521 0.224748 0.436239 0.032759 0.167227 -0.328860 -0.134250 -0.347789 0.101983 -0.105955 0.708939 -0.290992 0.206115 0.000660 -0.004812 0.128439 -0.243511 -0.068843 0.373753 -0.118847 0.181882 -0.253041 -0.090959 0.424939 0.189635 -0.036488 0.383430 -0.070016 -0.212772 0.112261 0.241867 -0.053317 0.031851 -0.347121 0.430550 0.267463 -0.062871 -0.096007 0.093222 0.028820 0.375842 0.230425 0.272245 0.075776 0.311712
ytd-yoodle-renderer 0.332484 0.581486 0.324692 0.473119 0.077499 0.580726 0.173553 0.285227 -0.067889 0.946315 -0.017827 -0.070747 -0.444664 -0.433784 0.012783 0.564977 -0.530635 0.174429 0.518006 0.018111 -0.096637 0.116139 -0.260036 -0.181111 -0.227479 0.309046 -0.366782 0.032121 0.636285 0.312955 0.615833 0.633407 -0.149707 -0.016447 0.036056 0.088317 -0.168274 -0.004842 -0.597399 0.086053 0.179647 -0.033850 -0.205243 0.171014 -0.077611 0.314433 -0.393501 -0.146745 -0.263183 0.642690
